<?xml version="1.0"?>
<opencv_storage>
<cascade>
  <stageType>BOOST</stageType>
  <featureType>HAAR</featureType>
  <height>20</height>
  <width>20</width>
  <stageParams>
    <boostType>GAB</boostType>
    <minHitRate>9.9500000476837158e-01</minHitRate>
    <maxFalseAlarm>5.0000000000000000e-01</maxFalseAlarm>
    <weightTrimRate>9.4999999999999996e-01</weightTrimRate>
    <maxDepth>1</maxDepth>
    <maxWeakCount>100</maxWeakCount></stageParams>
  <featureParams>
    <maxCatCount>0</maxCatCount>
    <featSize>1</featSize>
    <mode>BASIC</mode></featureParams>
  <stageNum>13</stageNum>
  <stages>
    <!-- stage 0 -->
    <_>
      <maxWeakCount>2</maxWeakCount>
      <stageThreshold>-1.1870747059583664e-01</stageThreshold>
      <weakClassifiers>
        <_>
          <internalNodes>
            0 -1 38 6.0703277587890625e-02</internalNodes>
          <leafValues>
            -9.8484849929809570e-01 9.3886464834213257e-01</leafValues></_>
        <_>
          <internalNodes>
            0 -1 26 -2.0093418657779694e-02</internalNodes>
          <leafValues>
            8.6614102125167847e-01 -9.7592508792877197e-01</leafValues></_></weakClassifiers></_>
    <!-- stage 1 -->
    <_>
      <maxWeakCount>2</maxWeakCount>
      <stageThreshold>-2.8957012295722961e-01</stageThreshold>
      <weakClassifiers>
        <_>
          <internalNodes>
            0 -1 39 5.9670284390449524e-02</internalNodes>
          <leafValues>
            -8.6939823627471924e-01 7.0149254798889160e-01</leafValues></_>
        <_>
          <internalNodes>
            0 -1 18 -1.7627760767936707e-01</internalNodes>
          <leafValues>
            5.7982808351516724e-01 -9.5786678791046143e-01</leafValues></_></weakClassifiers></_>
    <!-- stage 2 -->
    <_>
      <maxWeakCount>4</maxWeakCount>
      <stageThreshold>-6.3663220405578613e-01</stageThreshold>
      <weakClassifiers>
        <_>
          <internalNodes>
            0 -1 8 -9.4813168048858643e-02</internalNodes>
          <leafValues>
            7.7827048301696777e-01 -8.7734669446945190e-01</leafValues></_>
        <_>
          <internalNodes>
            0 -1 15 1.6378593444824219e-01</internalNodes>
          <leafValues>
            -9.1447407007217407e-01 5.1316100358963013e-01</leafValues></_>
        <_>
          <internalNodes>
            0 -1 4 1.6961339497356676e-05</internalNodes>
          <leafValues>
            3.9261198043823242e-01 -9.8539441823959351e-01</leafValues></_>
        <_>
          <internalNodes>
            0 -1 32 -8.9198499917984009e-02</internalNodes>
          <leafValues>
            7.6257658004760742e-01 -6.2596797943115234e-01</leafValues></_></weakClassifiers></_>
    <!-- stage 3 -->
    <_>
      <maxWeakCount>4</maxWeakCount>
      <stageThreshold>-8.3735674619674683e-01</stageThreshold>
      <weakClassifiers>
        <_>
          <internalNodes>
            0 -1 36 8.4462426602840424e-03</internalNodes>
          <leafValues>
            -7.8446114063262939e-01 6.1061948537826538e-01</leafValues></_>
        <_>
          <internalNodes>
            0 -1 7 -1.9391758367419243e-02</internalNodes>
          <leafValues>
            5.6676214933395386e-01 -8.6886274814605713e-01</leafValues></_>
        <_>
          <internalNodes>
            0 -1 4 -1.4909322999301367e-05</internalNodes>
          <leafValues>
            -1. 3.8033381104469299e-01</leafValues></_>
        <_>
          <internalNodes>
            0 -1 12 2.5432461872696877e-02</internalNodes>
          <leafValues>
            -9.5979100465774536e-01 4.3563333153724670e-01</leafValues></_></weakClassifiers></_>
    <!-- stage 4 -->
    <_>
      <maxWeakCount>2</maxWeakCount>
      <stageThreshold>-3.5215529799461365e-01</stageThreshold>
      <weakClassifiers>
        <_>
          <internalNodes>
            0 -1 20 -1.1320519447326660e-01</internalNodes>
          <leafValues>
            6.6906476020812988e-01 -7.5510203838348389e-01</leafValues></_>
        <_>
          <internalNodes>
            0 -1 13 1.4525376172969118e-05</internalNodes>
          <leafValues>
            4.0294674038887024e-01 -9.7995632886886597e-01</leafValues></_></weakClassifiers></_>
    <!-- stage 5 -->
    <_>
      <maxWeakCount>2</maxWeakCount>
      <stageThreshold>-3.5126903653144836e-01</stageThreshold>
      <weakClassifiers>
        <_>
          <internalNodes>
            0 -1 10 -5.6485682725906372e-02</internalNodes>
          <leafValues>
            6.3446474075317383e-01 -6.8396770954132080e-01</leafValues></_>
        <_>
          <internalNodes>
            0 -1 1 6.4506115450058132e-05</internalNodes>
          <leafValues>
            3.3269867300987244e-01 -1.</leafValues></_></weakClassifiers></_>
    <!-- stage 6 -->
    <_>
      <maxWeakCount>1</maxWeakCount>
      <stageThreshold>6.3272726535797119e-01</stageThreshold>
      <weakClassifiers>
        <_>
          <internalNodes>
            0 -1 1 -2.2419113520300016e-05</internalNodes>
          <leafValues>
            -9.9714285135269165e-01 6.3272726535797119e-01</leafValues></_></weakClassifiers></_>
    <!-- stage 7 -->
    <_>
      <maxWeakCount>5</maxWeakCount>
      <stageThreshold>-8.2038897275924683e-01</stageThreshold>
      <weakClassifiers>
        <_>
          <internalNodes>
            0 -1 22 2.1374698728322983e-02</internalNodes>
          <leafValues>
            -8.0080753564834595e-01 4.8323470354080200e-01</leafValues></_>
        <_>
          <internalNodes>
            0 -1 24 -4.5887921005487442e-03</internalNodes>
          <leafValues>
            4.0688574314117432e-01 -9.0527725219726563e-01</leafValues></_>
        <_>
          <internalNodes>
            0 -1 17 6.0368617996573448e-03</internalNodes>
          <leafValues>
            -9.0223550796508789e-01 3.1652113795280457e-01</leafValues></_>
        <_>
          <internalNodes>
            0 -1 40 -1.2955936654179823e-05</internalNodes>
          <leafValues>
            -9.7796708345413208e-01 2.9477187991142273e-01</leafValues></_>
        <_>
          <internalNodes>
            0 -1 9 -2.4086809158325195e-01</internalNodes>
          <leafValues>
            2.7440276741981506e-01 -9.5738148689270020e-01</leafValues></_></weakClassifiers></_>
    <!-- stage 8 -->
    <_>
      <maxWeakCount>3</maxWeakCount>
      <stageThreshold>-1.0846378803253174e+00</stageThreshold>
      <weakClassifiers>
        <_>
          <internalNodes>
            0 -1 11 -2.3749291896820068e-01</internalNodes>
          <leafValues>
            4.7140038013458252e-01 -7.9273217916488647e-01</leafValues></_>
        <_>
          <internalNodes>
            0 -1 37 -1.8292669206857681e-02</internalNodes>
          <leafValues>
            5.1496636867523193e-01 -6.0660839080810547e-01</leafValues></_>
        <_>
          <internalNodes>
            0 -1 0 -1.7382424630341120e-05</internalNodes>
          <leafValues>
            -9.8679876327514648e-01 3.1470265984535217e-01</leafValues></_></weakClassifiers></_>
    <!-- stage 9 -->
    <_>
      <maxWeakCount>5</maxWeakCount>
      <stageThreshold>-1.3266313076019287e+00</stageThreshold>
      <weakClassifiers>
        <_>
          <internalNodes>
            0 -1 31 2.7516774833202362e-02</internalNodes>
          <leafValues>
            -6.7136150598526001e-01 5.5778896808624268e-01</leafValues></_>
        <_>
          <internalNodes>
            0 -1 33 1.5167088806629181e-01</internalNodes>
          <leafValues>
            -6.4908230304718018e-01 4.8564869165420532e-01</leafValues></_>
        <_>
          <internalNodes>
            0 -1 19 1.8136379122734070e-01</internalNodes>
          <leafValues>
            -8.2459545135498047e-01 3.5391208529472351e-01</leafValues></_>
        <_>
          <internalNodes>
            0 -1 30 2.0503888663370162e-04</internalNodes>
          <leafValues>
            -6.1811214685440063e-01 5.4180186986923218e-01</leafValues></_>
        <_>
          <internalNodes>
            0 -1 41 1.3456274245982058e-05</internalNodes>
          <leafValues>
            2.5801250338554382e-01 -9.7843784093856812e-01</leafValues></_></weakClassifiers></_>
    <!-- stage 10 -->
    <_>
      <maxWeakCount>4</maxWeakCount>
      <stageThreshold>-9.3435055017471313e-01</stageThreshold>
      <weakClassifiers>
        <_>
          <internalNodes>
            0 -1 27 1.4328707475215197e-03</internalNodes>
          <leafValues>
            -8.1732285022735596e-01 2.7479675412178040e-01</leafValues></_>
        <_>
          <internalNodes>
            0 -1 25 2.3941218852996826e-02</internalNodes>
          <leafValues>
            -6.0215198993682861e-01 4.9296635389328003e-01</leafValues></_>
        <_>
          <internalNodes>
            0 -1 41 -1.3190217032388318e-05</internalNodes>
          <leafValues>
            -9.9520689249038696e-01 2.7236831188201904e-01</leafValues></_>
        <_>
          <internalNodes>
            0 -1 3 -5.0291106104850769e-02</internalNodes>
          <leafValues>
            2.6846516132354736e-01 -8.8236236572265625e-01</leafValues></_></weakClassifiers></_>
    <!-- stage 11 -->
    <_>
      <maxWeakCount>6</maxWeakCount>
      <stageThreshold>-2.0731270313262939e+00</stageThreshold>
      <weakClassifiers>
        <_>
          <internalNodes>
            0 -1 28 1.4302018098533154e-03</internalNodes>
          <leafValues>
            -8.4313726425170898e-01 2.6018807291984558e-01</leafValues></_>
        <_>
          <internalNodes>
            0 -1 35 9.6354484558105469e-03</internalNodes>
          <leafValues>
            -5.4130071401596069e-01 5.6021970510482788e-01</leafValues></_>
        <_>
          <internalNodes>
            0 -1 14 -7.9061854630708694e-03</internalNodes>
          <leafValues>
            3.3419206738471985e-01 -7.7190506458282471e-01</leafValues></_>
        <_>
          <internalNodes>
            0 -1 21 6.2164708971977234e-02</internalNodes>
          <leafValues>
            -4.4155973196029663e-01 5.8555722236633301e-01</leafValues></_>
        <_>
          <internalNodes>
            0 -1 23 4.6798447147011757e-03</internalNodes>
          <leafValues>
            -9.1118103265762329e-01 2.7009564638137817e-01</leafValues></_>
        <_>
          <internalNodes>
            0 -1 6 -1.3918755939812399e-05</internalNodes>
          <leafValues>
            -8.5141712427139282e-01 2.4984420835971832e-01</leafValues></_></weakClassifiers></_>
    <!-- stage 12 -->
    <_>
      <maxWeakCount>6</maxWeakCount>
      <stageThreshold>-1.2989312410354614e+00</stageThreshold>
      <weakClassifiers>
        <_>
          <internalNodes>
            0 -1 16 3.7300728261470795e-02</internalNodes>
          <leafValues>
            -8.1333333253860474e-01 2.1230769157409668e-01</leafValues></_>
        <_>
          <internalNodes>
            0 -1 34 2.7950350195169449e-03</internalNodes>
          <leafValues>
            -7.2454923391342163e-01 3.0350893735885620e-01</leafValues></_>
        <_>
          <internalNodes>
            0 -1 29 4.4490457512438297e-03</internalNodes>
          <leafValues>
            -4.2272365093231201e-01 5.3382217884063721e-01</leafValues></_>
        <_>
          <internalNodes>
            0 -1 5 -1.4982537322794087e-05</internalNodes>
          <leafValues>
            -9.5548021793365479e-01 3.1674548983573914e-01</leafValues></_>
        <_>
          <internalNodes>
            0 -1 5 1.7181282601086423e-05</internalNodes>
          <leafValues>
            1.4264103770256042e-01 -9.8970240354537964e-01</leafValues></_>
        <_>
          <internalNodes>
            0 -1 2 -8.0100998282432556e-02</internalNodes>
          <leafValues>
            2.0228843390941620e-01 -9.4423061609268188e-01</leafValues></_></weakClassifiers></_></stages>
  <features>
    <_>
      <rects>
        <_>
          0 0 2 10 -1.</_>
        <_>
          0 5 2 5 2.</_></rects>
      <tilted>0</tilted></_>
    <_>
      <rects>
        <_>
          0 0 18 2 -1.</_>
        <_>
          6 0 6 2 3.</_></rects>
      <tilted>0</tilted></_>
    <_>
      <rects>
        <_>
          0 0 19 18 -1.</_>
        <_>
          0 9 19 9 2.</_></rects>
      <tilted>0</tilted></_>
    <_>
      <rects>
        <_>
          0 1 18 16 -1.</_>
        <_>
          9 1 9 16 2.</_></rects>
      <tilted>0</tilted></_>
    <_>
      <rects>
        <_>
          0 8 1 12 -1.</_>
        <_>
          0 14 1 6 2.</_></rects>
      <tilted>0</tilted></_>
    <_>
      <rects>
        <_>
          0 19 16 1 -1.</_>
        <_>
          8 19 8 1 2.</_></rects>
      <tilted>0</tilted></_>
    <_>
      <rects>
        <_>
          1 2 4 6 -1.</_>
        <_>
          1 4 4 2 3.</_></rects>
      <tilted>0</tilted></_>
    <_>
      <rects>
        <_>
          1 2 15 4 -1.</_>
        <_>
          1 4 15 2 2.</_></rects>
      <tilted>0</tilted></_>
    <_>
      <rects>
        <_>
          1 5 8 8 -1.</_>
        <_>
          5 5 4 8 2.</_></rects>
      <tilted>0</tilted></_>
    <_>
      <rects>
        <_>
          2 2 11 18 -1.</_>
        <_>
          2 8 11 6 3.</_></rects>
      <tilted>0</tilted></_>
    <_>
      <rects>
        <_>
          2 8 9 3 -1.</_>
        <_>
          5 8 3 3 3.</_></rects>
      <tilted>0</tilted></_>
    <_>
      <rects>
        <_>
          2 10 18 7 -1.</_>
        <_>
          8 10 6 7 3.</_></rects>
      <tilted>0</tilted></_>
    <_>
      <rects>
        <_>
          2 14 16 6 -1.</_>
        <_>
          2 17 16 3 2.</_></rects>
      <tilted>0</tilted></_>
    <_>
      <rects>
        <_>
          3 15 2 4 -1.</_>
        <_>
          3 17 2 2 2.</_></rects>
      <tilted>0</tilted></_>
    <_>
      <rects>
        <_>
          4 1 16 4 -1.</_>
        <_>
          4 3 16 2 2.</_></rects>
      <tilted>0</tilted></_>
    <_>
      <rects>
        <_>
          4 6 11 14 -1.</_>
        <_>
          4 13 11 7 2.</_></rects>
      <tilted>0</tilted></_>
    <_>
      <rects>
        <_>
          4 10 13 9 -1.</_>
        <_>
          4 13 13 3 3.</_></rects>
      <tilted>0</tilted></_>
    <_>
      <rects>
        <_>
          4 16 15 4 -1.</_>
        <_>
          4 18 15 2 2.</_></rects>
      <tilted>0</tilted></_>
    <_>
      <rects>
        <_>
          5 0 10 14 -1.</_>
        <_>
          5 7 10 7 2.</_></rects>
      <tilted>0</tilted></_>
    <_>
      <rects>
        <_>
          5 6 15 14 -1.</_>
        <_>
          5 13 15 7 2.</_></rects>
      <tilted>0</tilted></_>
    <_>
      <rects>
        <_>
          5 7 8 9 -1.</_>
        <_>
          5 10 8 3 3.</_></rects>
      <tilted>0</tilted></_>
    <_>
      <rects>
        <_>
          5 8 3 10 -1.</_>
        <_>
          5 13 3 5 2.</_></rects>
      <tilted>0</tilted></_>
    <_>
      <rects>
        <_>
          5 9 3 6 -1.</_>
        <_>
          5 12 3 3 2.</_></rects>
      <tilted>0</tilted></_>
    <_>
      <rects>
        <_>
          5 15 12 4 -1.</_>
        <_>
          5 17 12 2 2.</_></rects>
      <tilted>0</tilted></_>
    <_>
      <rects>
        <_>
          6 1 13 4 -1.</_>
        <_>
          6 3 13 2 2.</_></rects>
      <tilted>0</tilted></_>
    <_>
      <rects>
        <_>
          6 7 9 2 -1.</_>
        <_>
          9 7 3 2 3.</_></rects>
      <tilted>0</tilted></_>
    <_>
      <rects>
        <_>
          6 10 14 10 -1.</_>
        <_>
          6 10 7 5 2.</_>
        <_>
          13 15 7 5 2.</_></rects>
      <tilted>0</tilted></_>
    <_>
      <rects>
        <_>
          6 17 8 2 -1.</_>
        <_>
          6 18 8 1 2.</_></rects>
      <tilted>0</tilted></_>
    <_>
      <rects>
        <_>
          6 17 9 2 -1.</_>
        <_>
          6 18 9 1 2.</_></rects>
      <tilted>0</tilted></_>
    <_>
      <rects>
        <_>
          7 1 9 4 -1.</_>
        <_>
          10 1 3 4 3.</_></rects>
      <tilted>0</tilted></_>
    <_>
      <rects>
        <_>
          7 7 2 6 -1.</_>
        <_>
          8 7 1 6 2.</_></rects>
      <tilted>0</tilted></_>
    <_>
      <rects>
        <_>
          8 4 6 5 -1.</_>
        <_>
          10 4 2 5 3.</_></rects>
      <tilted>0</tilted></_>
    <_>
      <rects>
        <_>
          8 5 12 6 -1.</_>
        <_>
          12 5 4 6 3.</_></rects>
      <tilted>0</tilted></_>
    <_>
      <rects>
        <_>
          8 10 12 8 -1.</_>
        <_>
          14 10 6 8 2.</_></rects>
      <tilted>0</tilted></_>
    <_>
      <rects>
        <_>
          8 16 12 1 -1.</_>
        <_>
          14 16 6 1 2.</_></rects>
      <tilted>0</tilted></_>
    <_>
      <rects>
        <_>
          9 6 1 6 -1.</_>
        <_>
          9 8 1 2 3.</_></rects>
      <tilted>0</tilted></_>
    <_>
      <rects>
        <_>
          9 6 2 6 -1.</_>
        <_>
          9 8 2 2 3.</_></rects>
      <tilted>0</tilted></_>
    <_>
      <rects>
        <_>
          9 8 3 4 -1.</_>
        <_>
          9 10 3 2 2.</_></rects>
      <tilted>0</tilted></_>
    <_>
      <rects>
        <_>
          10 9 10 4 -1.</_>
        <_>
          15 9 5 4 2.</_></rects>
      <tilted>0</tilted></_>
    <_>
      <rects>
        <_>
          10 10 8 4 -1.</_>
        <_>
          14 10 4 4 2.</_></rects>
      <tilted>0</tilted></_>
    <_>
      <rects>
        <_>
          19 0 1 10 -1.</_>
        <_>
          19 5 1 5 2.</_></rects>
      <tilted>0</tilted></_>
    <_>
      <rects>
        <_>
          19 4 1 16 -1.</_>
        <_>
          19 12 1 8 2.</_></rects>
      <tilted>0</tilted></_></features></cascade>
</opencv_storage>
