<?xml version="1.0"?>
<opencv_storage>
<stage7>
  <maxWeakCount>5</maxWeakCount>
  <stageThreshold>-8.2038897275924683e-01</stageThreshold>
  <weakClassifiers>
    <_>
      <internalNodes>
        0 -1 38214 2.1374698728322983e-02</internalNodes>
      <leafValues>
        -8.0080753564834595e-01 4.8323470354080200e-01</leafValues></_>
    <_>
      <internalNodes>
        0 -1 40823 -4.5887921005487442e-03</internalNodes>
      <leafValues>
        4.0688574314117432e-01 -9.0527725219726563e-01</leafValues></_>
    <_>
      <internalNodes>
        0 -1 34044 6.0368617996573448e-03</internalNodes>
      <leafValues>
        -9.0223550796508789e-01 3.1652113795280457e-01</leafValues></_>
    <_>
      <internalNodes>
        0 -1 78305 -1.2955936654179823e-05</internalNodes>
      <leafValues>
        -9.7796708345413208e-01 2.9477187991142273e-01</leafValues></_>
    <_>
      <internalNodes>
        0 -1 16593 -2.4086809158325195e-01</internalNodes>
      <leafValues>
        2.7440276741981506e-01 -9.5738148689270020e-01</leafValues></_></weakClassifiers></stage7>
</opencv_storage>
