<?xml version="1.0"?>
<opencv_storage>
<cascade>
  <stageType>BOOST</stageType>
  <featureType>HAAR</featureType>
  <height>20</height>
  <width>20</width>
  <stageParams>
    <boostType>GAB</boostType>
    <minHitRate>9.9500000476837158e-01</minHitRate>
    <maxFalseAlarm>5.0000000000000000e-01</maxFalseAlarm>
    <weightTrimRate>9.4999999999999996e-01</weightTrimRate>
    <maxDepth>1</maxDepth>
    <maxWeakCount>100</maxWeakCount></stageParams>
  <featureParams>
    <maxCatCount>0</maxCatCount>
    <featSize>1</featSize>
    <mode>BASIC</mode></featureParams>
  <stageNum>14</stageNum>
  <stages>
    <!-- stage 0 -->
    <_>
      <maxWeakCount>1</maxWeakCount>
      <stageThreshold>1.</stageThreshold>
      <weakClassifiers>
        <_>
          <internalNodes>
            0 -1 20 6.7525506019592285e-02</internalNodes>
          <leafValues>
            -1. 1.</leafValues></_></weakClassifiers></_>
    <!-- stage 1 -->
    <_>
      <maxWeakCount>2</maxWeakCount>
      <stageThreshold>-2.4820101261138916e-01</stageThreshold>
      <weakClassifiers>
        <_>
          <internalNodes>
            0 -1 11 -1.3256111741065979e-01</internalNodes>
          <leafValues>
            8.7931036949157715e-01 -9.6437656879425049e-01</leafValues></_>
        <_>
          <internalNodes>
            0 -1 17 -4.6306490898132324e-02</internalNodes>
          <leafValues>
            7.1617555618286133e-01 -9.7985273599624634e-01</leafValues></_></weakClassifiers></_>
    <!-- stage 2 -->
    <_>
      <maxWeakCount>3</maxWeakCount>
      <stageThreshold>-1.2349036931991577e+00</stageThreshold>
      <weakClassifiers>
        <_>
          <internalNodes>
            0 -1 9 1.8401959910988808e-02</internalNodes>
          <leafValues>
            -9.6675902605056763e-01 6.5909093618392944e-01</leafValues></_>
        <_>
          <internalNodes>
            0 -1 21 6.0528606176376343e-02</internalNodes>
          <leafValues>
            -9.0243971347808838e-01 6.0774064064025879e-01</leafValues></_>
        <_>
          <internalNodes>
            0 -1 8 -2.7331510558724403e-02</internalNodes>
          <leafValues>
            6.3429498672485352e-01 -7.9925173521041870e-01</leafValues></_></weakClassifiers></_>
    <!-- stage 3 -->
    <_>
      <maxWeakCount>2</maxWeakCount>
      <stageThreshold>-3.7572133541107178e-01</stageThreshold>
      <weakClassifiers>
        <_>
          <internalNodes>
            0 -1 10 -6.2654450535774231e-02</internalNodes>
          <leafValues>
            7.5501114130020142e-01 -8.6017477512359619e-01</leafValues></_>
        <_>
          <internalNodes>
            0 -1 1 -1.9415079057216644e-01</internalNodes>
          <leafValues>
            4.8445343971252441e-01 -9.7120296955108643e-01</leafValues></_></weakClassifiers></_>
    <!-- stage 4 -->
    <_>
      <maxWeakCount>2</maxWeakCount>
      <stageThreshold>-5.9083843231201172e-01</stageThreshold>
      <weakClassifiers>
        <_>
          <internalNodes>
            0 -1 7 4.3796256184577942e-02</internalNodes>
          <leafValues>
            -9.5014661550521851e-01 5.2464789152145386e-01</leafValues></_>
        <_>
          <internalNodes>
            0 -1 0 -2.5844939955277368e-05</internalNodes>
          <leafValues>
            -1. 3.5930818319320679e-01</leafValues></_></weakClassifiers></_>
    <!-- stage 5 -->
    <_>
      <maxWeakCount>3</maxWeakCount>
      <stageThreshold>-1.0286861658096313e+00</stageThreshold>
      <weakClassifiers>
        <_>
          <internalNodes>
            0 -1 22 3.9127219468355179e-02</internalNodes>
          <leafValues>
            -8.6312848329544067e-01 5.0187265872955322e-01</leafValues></_>
        <_>
          <internalNodes>
            0 -1 5 -3.4991896152496338e-01</internalNodes>
          <leafValues>
            6.7780661582946777e-01 -7.2824442386627197e-01</leafValues></_>
        <_>
          <internalNodes>
            0 -1 18 5.7042529806494713e-03</internalNodes>
          <leafValues>
            -8.4172248840332031e-01 5.6268668174743652e-01</leafValues></_></weakClassifiers></_>
    <!-- stage 6 -->
    <_>
      <maxWeakCount>2</maxWeakCount>
      <stageThreshold>-5.3096282482147217e-01</stageThreshold>
      <weakClassifiers>
        <_>
          <internalNodes>
            0 -1 22 3.9902482181787491e-02</internalNodes>
          <leafValues>
            -8.6721992492675781e-01 5.2561670541763306e-01</leafValues></_>
        <_>
          <internalNodes>
            0 -1 15 1.5555864592897706e-05</internalNodes>
          <leafValues>
            3.3625710010528564e-01 -1.</leafValues></_></weakClassifiers></_>
    <!-- stage 7 -->
    <_>
      <maxWeakCount>1</maxWeakCount>
      <stageThreshold>3.4328359365463257e-01</stageThreshold>
      <weakClassifiers>
        <_>
          <internalNodes>
            0 -1 15 -1.5502844689763151e-05</internalNodes>
          <leafValues>
            -1. 3.4328359365463257e-01</leafValues></_></weakClassifiers></_>
    <!-- stage 8 -->
    <_>
      <maxWeakCount>2</maxWeakCount>
      <stageThreshold>-4.6047788858413696e-01</stageThreshold>
      <weakClassifiers>
        <_>
          <internalNodes>
            0 -1 24 2.3579839617013931e-02</internalNodes>
          <leafValues>
            -7.4554705619812012e-01 5.0862067937850952e-01</leafValues></_>
        <_>
          <internalNodes>
            0 -1 2 1.8410660326480865e-02</internalNodes>
          <leafValues>
            -9.6909856796264648e-01 3.7490263581275940e-01</leafValues></_></weakClassifiers></_>
    <!-- stage 9 -->
    <_>
      <maxWeakCount>2</maxWeakCount>
      <stageThreshold>-7.2541415691375732e-01</stageThreshold>
      <weakClassifiers>
        <_>
          <internalNodes>
            0 -1 3 1.7319553080596961e-05</internalNodes>
          <leafValues>
            2.1978022158145905e-01 -9.7701150178909302e-01</leafValues></_>
        <_>
          <internalNodes>
            0 -1 14 1.4572280633728951e-05</internalNodes>
          <leafValues>
            2.5159731507301331e-01 -1.</leafValues></_></weakClassifiers></_>
    <!-- stage 10 -->
    <_>
      <maxWeakCount>3</maxWeakCount>
      <stageThreshold>-1.1782300472259521e+00</stageThreshold>
      <weakClassifiers>
        <_>
          <internalNodes>
            0 -1 6 1.8227371573448181e-01</internalNodes>
          <leafValues>
            -8.6666667461395264e-01 5.5728155374526978e-01</leafValues></_>
        <_>
          <internalNodes>
            0 -1 16 -5.1942706108093262e-02</internalNodes>
          <leafValues>
            6.2356698513031006e-01 -7.3807084560394287e-01</leafValues></_>
        <_>
          <internalNodes>
            0 -1 26 4.4023239752277732e-05</internalNodes>
          <leafValues>
            4.2650744318962097e-01 -9.7977888584136963e-01</leafValues></_></weakClassifiers></_>
    <!-- stage 11 -->
    <_>
      <maxWeakCount>2</maxWeakCount>
      <stageThreshold>-2.7496105432510376e-01</stageThreshold>
      <weakClassifiers>
        <_>
          <internalNodes>
            0 -1 19 7.8071616590023041e-02</internalNodes>
          <leafValues>
            -6.9730943441390991e-01 7.5977653264999390e-01</leafValues></_>
        <_>
          <internalNodes>
            0 -1 3 1.7207614291692153e-05</internalNodes>
          <leafValues>
            4.2234838008880615e-01 -9.6166557073593140e-01</leafValues></_></weakClassifiers></_>
    <!-- stage 12 -->
    <_>
      <maxWeakCount>2</maxWeakCount>
      <stageThreshold>-3.9289897680282593e-01</stageThreshold>
      <weakClassifiers>
        <_>
          <internalNodes>
            0 -1 16 -5.5435802787542343e-02</internalNodes>
          <leafValues>
            5.6140351295471191e-01 -7.6322418451309204e-01</leafValues></_>
        <_>
          <internalNodes>
            0 -1 12 1.5420441329479218e-01</internalNodes>
          <leafValues>
            -9.5430248975753784e-01 3.9597117900848389e-01</leafValues></_></weakClassifiers></_>
    <!-- stage 13 -->
    <_>
      <maxWeakCount>4</maxWeakCount>
      <stageThreshold>-1.1635715961456299e+00</stageThreshold>
      <weakClassifiers>
        <_>
          <internalNodes>
            0 -1 13 1.9193344996892847e-05</internalNodes>
          <leafValues>
            2.1195651590824127e-01 -9.8443579673767090e-01</leafValues></_>
        <_>
          <internalNodes>
            0 -1 23 -3.5465583205223083e-02</internalNodes>
          <leafValues>
            3.6111220717430115e-01 -8.1042033433914185e-01</leafValues></_>
        <_>
          <internalNodes>
            0 -1 25 1.5633117072866298e-05</internalNodes>
          <leafValues>
            3.2825890183448792e-01 -9.3727558851242065e-01</leafValues></_>
        <_>
          <internalNodes>
            0 -1 4 2.1080757505842485e-05</internalNodes>
          <leafValues>
            3.7216779589653015e-01 -9.5826262235641479e-01</leafValues></_></weakClassifiers></_></stages>
  <features>
    <_>
      <rects>
        <_>
          0 1 18 1 -1.</_>
        <_>
          9 1 9 1 2.</_></rects>
      <tilted>0</tilted></_>
    <_>
      <rects>
        <_>
          0 3 16 10 -1.</_>
        <_>
          8 3 8 10 2.</_></rects>
      <tilted>0</tilted></_>
    <_>
      <rects>
        <_>
          0 16 18 4 -1.</_>
        <_>
          0 18 18 2 2.</_></rects>
      <tilted>0</tilted></_>
    <_>
      <rects>
        <_>
          0 18 20 2 -1.</_>
        <_>
          0 19 20 1 2.</_></rects>
      <tilted>0</tilted></_>
    <_>
      <rects>
        <_>
          4 3 2 9 -1.</_>
        <_>
          4 6 2 3 3.</_></rects>
      <tilted>0</tilted></_>
    <_>
      <rects>
        <_>
          4 4 15 8 -1.</_>
        <_>
          9 4 5 8 3.</_></rects>
      <tilted>0</tilted></_>
    <_>
      <rects>
        <_>
          5 9 14 8 -1.</_>
        <_>
          12 9 7 8 2.</_></rects>
      <tilted>0</tilted></_>
    <_>
      <rects>
        <_>
          5 14 7 6 -1.</_>
        <_>
          5 17 7 3 2.</_></rects>
      <tilted>0</tilted></_>
    <_>
      <rects>
        <_>
          5 15 14 4 -1.</_>
        <_>
          5 15 7 2 2.</_>
        <_>
          12 17 7 2 2.</_></rects>
      <tilted>0</tilted></_>
    <_>
      <rects>
        <_>
          5 16 9 4 -1.</_>
        <_>
          5 18 9 2 2.</_></rects>
      <tilted>0</tilted></_>
    <_>
      <rects>
        <_>
          6 8 6 3 -1.</_>
        <_>
          9 8 3 3 2.</_></rects>
      <tilted>0</tilted></_>
    <_>
      <rects>
        <_>
          6 8 9 4 -1.</_>
        <_>
          9 8 3 4 3.</_></rects>
      <tilted>0</tilted></_>
    <_>
      <rects>
        <_>
          6 10 14 9 -1.</_>
        <_>
          13 10 7 9 2.</_></rects>
      <tilted>0</tilted></_>
    <_>
      <rects>
        <_>
          6 18 14 2 -1.</_>
        <_>
          13 18 7 2 2.</_></rects>
      <tilted>0</tilted></_>
    <_>
      <rects>
        <_>
          7 0 12 2 -1.</_>
        <_>
          13 0 6 2 2.</_></rects>
      <tilted>0</tilted></_>
    <_>
      <rects>
        <_>
          7 1 12 1 -1.</_>
        <_>
          13 1 6 1 2.</_></rects>
      <tilted>0</tilted></_>
    <_>
      <rects>
        <_>
          7 10 6 2 -1.</_>
        <_>
          9 10 2 2 3.</_></rects>
      <tilted>0</tilted></_>
    <_>
      <rects>
        <_>
          8 0 10 6 -1.</_>
        <_>
          8 3 10 3 2.</_></rects>
      <tilted>0</tilted></_>
    <_>
      <rects>
        <_>
          8 1 10 3 -1.</_>
        <_>
          8 2 10 1 3.</_></rects>
      <tilted>0</tilted></_>
    <_>
      <rects>
        <_>
          9 3 4 14 -1.</_>
        <_>
          9 3 2 7 2.</_>
        <_>
          11 10 2 7 2.</_></rects>
      <tilted>0</tilted></_>
    <_>
      <rects>
        <_>
          9 7 8 6 -1.</_>
        <_>
          13 7 4 6 2.</_></rects>
      <tilted>0</tilted></_>
    <_>
      <rects>
        <_>
          9 9 6 3 -1.</_>
        <_>
          12 9 3 3 2.</_></rects>
      <tilted>0</tilted></_>
    <_>
      <rects>
        <_>
          9 10 4 4 -1.</_>
        <_>
          11 10 2 4 2.</_></rects>
      <tilted>0</tilted></_>
    <_>
      <rects>
        <_>
          10 0 1 14 -1.</_>
        <_>
          10 7 1 7 2.</_></rects>
      <tilted>0</tilted></_>
    <_>
      <rects>
        <_>
          10 1 10 4 -1.</_>
        <_>
          10 1 5 2 2.</_>
        <_>
          15 3 5 2 2.</_></rects>
      <tilted>0</tilted></_>
    <_>
      <rects>
        <_>
          13 11 6 1 -1.</_>
        <_>
          15 11 2 1 3.</_></rects>
      <tilted>0</tilted></_>
    <_>
      <rects>
        <_>
          17 4 1 15 -1.</_>
        <_>
          17 9 1 5 3.</_></rects>
      <tilted>0</tilted></_></features></cascade>
</opencv_storage>
