<?xml version="1.0"?>
<opencv_storage>
<stage3>
  <maxWeakCount>5</maxWeakCount>
  <stageThreshold>-1.5735173225402832e+00</stageThreshold>
  <weakClassifiers>
    <_>
      <internalNodes>
        0 -1 27244 1.5777346491813660e-01</internalNodes>
      <leafValues>
        -7.8750002384185791e-01 6.2222224473953247e-01</leafValues></_>
    <_>
      <internalNodes>
        0 -1 36018 -1.4793878793716431e-01</internalNodes>
      <leafValues>
        5.7595908641815186e-01 -8.0948156118392944e-01</leafValues></_>
    <_>
      <internalNodes>
        0 -1 41919 4.2926944792270660e-02</internalNodes>
      <leafValues>
        -7.1746987104415894e-01 5.8608788251876831e-01</leafValues></_>
    <_>
      <internalNodes>
        0 -1 8337 1.5227328731270973e-05</internalNodes>
      <leafValues>
        3.9404585957527161e-01 -9.8856210708618164e-01</leafValues></_>
    <_>
      <internalNodes>
        0 -1 8337 -1.6379914086428471e-05</internalNodes>
      <leafValues>
        -9.9808281660079956e-01 3.4688830375671387e-01</leafValues></_></weakClassifiers></stage3>
</opencv_storage>
