<?xml version="1.0"?>
<opencv_storage>
<cascade>
  <stageType>BOOST</stageType>
  <featureType>HAAR</featureType>
  <height>20</height>
  <width>20</width>
  <stageParams>
    <boostType>GAB</boostType>
    <minHitRate>9.9500000476837158e-01</minHitRate>
    <maxFalseAlarm>5.0000000000000000e-01</maxFalseAlarm>
    <weightTrimRate>9.4999999999999996e-01</weightTrimRate>
    <maxDepth>1</maxDepth>
    <maxWeakCount>100</maxWeakCount></stageParams>
  <featureParams>
    <maxCatCount>0</maxCatCount>
    <featSize>1</featSize>
    <mode>BASIC</mode></featureParams>
  <stageNum>18</stageNum>
  <stages>
    <!-- stage 0 -->
    <_>
      <maxWeakCount>2</maxWeakCount>
      <stageThreshold>-9.9320329725742340e-02</stageThreshold>
      <weakClassifiers>
        <_>
          <internalNodes>
            0 -1 16 -1.8918433785438538e-01</internalNodes>
          <leafValues>
            8.8085108995437622e-01 -9.4285714626312256e-01</leafValues></_>
        <_>
          <internalNodes>
            0 -1 33 7.1996822953224182e-02</internalNodes>
          <leafValues>
            -7.5523632764816284e-01 8.4353679418563843e-01</leafValues></_></weakClassifiers></_>
    <!-- stage 1 -->
    <_>
      <maxWeakCount>2</maxWeakCount>
      <stageThreshold>-3.9894551038742065e-02</stageThreshold>
      <weakClassifiers>
        <_>
          <internalNodes>
            0 -1 8 -5.6430526077747345e-02</internalNodes>
          <leafValues>
            7.4596774578094482e-01 -8.6614173650741577e-01</leafValues></_>
        <_>
          <internalNodes>
            0 -1 43 2.3844901472330093e-02</internalNodes>
          <leafValues>
            -7.5962835550308228e-01 8.2624715566635132e-01</leafValues></_></weakClassifiers></_>
    <!-- stage 2 -->
    <_>
      <maxWeakCount>2</maxWeakCount>
      <stageThreshold>-3.1526234745979309e-01</stageThreshold>
      <weakClassifiers>
        <_>
          <internalNodes>
            0 -1 49 9.6635475754737854e-02</internalNodes>
          <leafValues>
            -9.0476191043853760e-01 8.3228510618209839e-01</leafValues></_>
        <_>
          <internalNodes>
            0 -1 3 4.2835508793359622e-05</internalNodes>
          <leafValues>
            5.8949959278106689e-01 -1.</leafValues></_></weakClassifiers></_>
    <!-- stage 3 -->
    <_>
      <maxWeakCount>2</maxWeakCount>
      <stageThreshold>-2.5409340858459473e-01</stageThreshold>
      <weakClassifiers>
        <_>
          <internalNodes>
            0 -1 0 -1.7576455138623714e-04</internalNodes>
          <leafValues>
            -9.7446811199188232e-01 7.3592233657836914e-01</leafValues></_>
        <_>
          <internalNodes>
            0 -1 29 -8.8991239666938782e-02</internalNodes>
          <leafValues>
            7.2037464380264282e-01 -8.5070228576660156e-01</leafValues></_></weakClassifiers></_>
    <!-- stage 4 -->
    <_>
      <maxWeakCount>1</maxWeakCount>
      <stageThreshold>6.7476636171340942e-01</stageThreshold>
      <weakClassifiers>
        <_>
          <internalNodes>
            0 -1 3 -6.9801433710381389e-05</internalNodes>
          <leafValues>
            -9.8139536380767822e-01 6.7476636171340942e-01</leafValues></_></weakClassifiers></_>
    <!-- stage 5 -->
    <_>
      <maxWeakCount>1</maxWeakCount>
      <stageThreshold>8.6335402727127075e-01</stageThreshold>
      <weakClassifiers>
        <_>
          <internalNodes>
            0 -1 3 2.1271698642522097e-05</internalNodes>
          <leafValues>
            8.6335402727127075e-01 -1.</leafValues></_></weakClassifiers></_>
    <!-- stage 6 -->
    <_>
      <maxWeakCount>4</maxWeakCount>
      <stageThreshold>-5.1807171106338501e-01</stageThreshold>
      <weakClassifiers>
        <_>
          <internalNodes>
            0 -1 50 1.2128187716007233e-01</internalNodes>
          <leafValues>
            -8.2771533727645874e-01 7.6811593770980835e-01</leafValues></_>
        <_>
          <internalNodes>
            0 -1 31 6.0089506208896637e-02</internalNodes>
          <leafValues>
            -6.0749393701553345e-01 8.1087249517440796e-01</leafValues></_>
        <_>
          <internalNodes>
            0 -1 2 -1.7186393961310387e-02</internalNodes>
          <leafValues>
            4.9818405508995056e-01 -8.1807941198348999e-01</leafValues></_>
        <_>
          <internalNodes>
            0 -1 12 -3.7689789314754307e-04</internalNodes>
          <leafValues>
            -9.5842915773391724e-01 4.1895353794097900e-01</leafValues></_></weakClassifiers></_>
    <!-- stage 7 -->
    <_>
      <maxWeakCount>4</maxWeakCount>
      <stageThreshold>-3.2951933145523071e-01</stageThreshold>
      <weakClassifiers>
        <_>
          <internalNodes>
            0 -1 10 4.1125938296318054e-03</internalNodes>
          <leafValues>
            -6.2886595726013184e-01 7.2549021244049072e-01</leafValues></_>
        <_>
          <internalNodes>
            0 -1 53 2.1473828703165054e-02</internalNodes>
          <leafValues>
            -8.8858032226562500e-01 5.0404959917068481e-01</leafValues></_>
        <_>
          <internalNodes>
            0 -1 47 -5.4927658289670944e-02</internalNodes>
          <leafValues>
            6.9973993301391602e-01 -6.2452769279479980e-01</leafValues></_>
        <_>
          <internalNodes>
            0 -1 32 5.0604626536369324e-02</internalNodes>
          <leafValues>
            -9.0756142139434814e-01 4.8818704485893250e-01</leafValues></_></weakClassifiers></_>
    <!-- stage 8 -->
    <_>
      <maxWeakCount>1</maxWeakCount>
      <stageThreshold>5.8098590373992920e-01</stageThreshold>
      <weakClassifiers>
        <_>
          <internalNodes>
            0 -1 46 2.9995266231708229e-05</internalNodes>
          <leafValues>
            5.8098590373992920e-01 -9.8901098966598511e-01</leafValues></_></weakClassifiers></_>
    <!-- stage 9 -->
    <_>
      <maxWeakCount>1</maxWeakCount>
      <stageThreshold>6.0714286565780640e-01</stageThreshold>
      <weakClassifiers>
        <_>
          <internalNodes>
            0 -1 46 -2.1881167413084768e-05</internalNodes>
          <leafValues>
            -1. 6.0714286565780640e-01</leafValues></_></weakClassifiers></_>
    <!-- stage 10 -->
    <_>
      <maxWeakCount>4</maxWeakCount>
      <stageThreshold>-6.0621869564056396e-01</stageThreshold>
      <weakClassifiers>
        <_>
          <internalNodes>
            0 -1 5 -1.4880195260047913e-01</internalNodes>
          <leafValues>
            6.4245808124542236e-01 -9.1549295186996460e-01</leafValues></_>
        <_>
          <internalNodes>
            0 -1 23 -1.2531199492514133e-02</internalNodes>
          <leafValues>
            7.8441196680068970e-01 -5.4443109035491943e-01</leafValues></_>
        <_>
          <internalNodes>
            0 -1 18 8.2471966743469238e-04</internalNodes>
          <leafValues>
            -7.7132356166839600e-01 5.2124869823455811e-01</leafValues></_>
        <_>
          <internalNodes>
            0 -1 35 -1.8858697265386581e-02</internalNodes>
          <leafValues>
            3.3245664834976196e-01 -9.8579090833663940e-01</leafValues></_></weakClassifiers></_>
    <!-- stage 11 -->
    <_>
      <maxWeakCount>5</maxWeakCount>
      <stageThreshold>-1.0124230384826660e+00</stageThreshold>
      <weakClassifiers>
        <_>
          <internalNodes>
            0 -1 15 -9.1763228178024292e-02</internalNodes>
          <leafValues>
            6.9958847761154175e-01 -7.1969699859619141e-01</leafValues></_>
        <_>
          <internalNodes>
            0 -1 45 8.1462296657264233e-04</internalNodes>
          <leafValues>
            -5.1005685329437256e-01 6.0594987869262695e-01</leafValues></_>
        <_>
          <internalNodes>
            0 -1 26 -2.8963565826416016e-02</internalNodes>
          <leafValues>
            4.6474274992942810e-01 -6.2579375505447388e-01</leafValues></_>
        <_>
          <internalNodes>
            0 -1 19 1.6953855752944946e-01</internalNodes>
          <leafValues>
            -5.8093255758285522e-01 6.1089736223220825e-01</leafValues></_>
        <_>
          <internalNodes>
            0 -1 21 -1.0959084611386061e-03</internalNodes>
          <leafValues>
            3.3352059125900269e-01 -7.9496753215789795e-01</leafValues></_></weakClassifiers></_>
    <!-- stage 12 -->
    <_>
      <maxWeakCount>3</maxWeakCount>
      <stageThreshold>-3.1189274042844772e-02</stageThreshold>
      <weakClassifiers>
        <_>
          <internalNodes>
            0 -1 7 4.3834999203681946e-02</internalNodes>
          <leafValues>
            -7.2016459703445435e-01 6.4102566242218018e-01</leafValues></_>
        <_>
          <internalNodes>
            0 -1 30 -1.1761759966611862e-01</internalNodes>
          <leafValues>
            3.7164914608001709e-01 -7.6676476001739502e-01</leafValues></_>
        <_>
          <internalNodes>
            0 -1 4 -8.2707628607749939e-03</internalNodes>
          <leafValues>
            3.1732618808746338e-01 -9.0024942159652710e-01</leafValues></_></weakClassifiers></_>
    <!-- stage 13 -->
    <_>
      <maxWeakCount>4</maxWeakCount>
      <stageThreshold>-3.6551082134246826e-01</stageThreshold>
      <weakClassifiers>
        <_>
          <internalNodes>
            0 -1 34 -4.6309791505336761e-02</internalNodes>
          <leafValues>
            7.0143151283264160e-01 -7.3946362733840942e-01</leafValues></_>
        <_>
          <internalNodes>
            0 -1 48 8.9378535747528076e-02</internalNodes>
          <leafValues>
            -4.6890768408775330e-01 5.7597112655639648e-01</leafValues></_>
        <_>
          <internalNodes>
            0 -1 40 3.9789188303984702e-04</internalNodes>
          <leafValues>
            -4.6368381381034851e-01 6.7116111516952515e-01</leafValues></_>
        <_>
          <internalNodes>
            0 -1 6 -7.2998836636543274e-02</internalNodes>
          <leafValues>
            2.6166546344757080e-01 -1.</leafValues></_></weakClassifiers></_>
    <!-- stage 14 -->
    <_>
      <maxWeakCount>7</maxWeakCount>
      <stageThreshold>-9.0352690219879150e-01</stageThreshold>
      <weakClassifiers>
        <_>
          <internalNodes>
            0 -1 38 1.4553427463397384e-03</internalNodes>
          <leafValues>
            -4.2352941632270813e-01 7.1707314252853394e-01</leafValues></_>
        <_>
          <internalNodes>
            0 -1 42 6.3504204154014587e-02</internalNodes>
          <leafValues>
            -5.6739336252212524e-01 5.5734014511108398e-01</leafValues></_>
        <_>
          <internalNodes>
            0 -1 39 7.4566662311553955e-02</internalNodes>
          <leafValues>
            -4.1352748870849609e-01 6.2741446495056152e-01</leafValues></_>
        <_>
          <internalNodes>
            0 -1 1 -1.6370642697438598e-05</internalNodes>
          <leafValues>
            -9.9612170457839966e-01 2.4827618896961212e-01</leafValues></_>
        <_>
          <internalNodes>
            0 -1 20 1.6240682452917099e-03</internalNodes>
          <leafValues>
            -4.1890105605125427e-01 5.6754308938980103e-01</leafValues></_>
        <_>
          <internalNodes>
            0 -1 56 2.1198378817643970e-05</internalNodes>
          <leafValues>
            2.6745626330375671e-01 -9.7252213954925537e-01</leafValues></_>
        <_>
          <internalNodes>
            0 -1 25 1.9227312877774239e-02</internalNodes>
          <leafValues>
            -5.9550786018371582e-01 4.0409195423126221e-01</leafValues></_></weakClassifiers></_>
    <!-- stage 15 -->
    <_>
      <maxWeakCount>6</maxWeakCount>
      <stageThreshold>-9.3797928094863892e-01</stageThreshold>
      <weakClassifiers>
        <_>
          <internalNodes>
            0 -1 56 -1.9997460185550153e-05</internalNodes>
          <leafValues>
            -8.7586206197738647e-01 4.5785123109817505e-01</leafValues></_>
        <_>
          <internalNodes>
            0 -1 9 3.7656392669305205e-04</internalNodes>
          <leafValues>
            -6.8107306957244873e-01 3.4290364384651184e-01</leafValues></_>
        <_>
          <internalNodes>
            0 -1 37 1.0900799930095673e-01</internalNodes>
          <leafValues>
            -7.2158050537109375e-01 4.0481114387512207e-01</leafValues></_>
        <_>
          <internalNodes>
            0 -1 54 9.4706751406192780e-03</internalNodes>
          <leafValues>
            -8.6529487371444702e-01 2.7591848373413086e-01</leafValues></_>
        <_>
          <internalNodes>
            0 -1 41 5.7125999592244625e-04</internalNodes>
          <leafValues>
            -4.6219235658645630e-01 5.5105328559875488e-01</leafValues></_>
        <_>
          <internalNodes>
            0 -1 27 -1.5367753803730011e-05</internalNodes>
          <leafValues>
            -9.3329465389251709e-01 2.2809052467346191e-01</leafValues></_></weakClassifiers></_>
    <!-- stage 16 -->
    <_>
      <maxWeakCount>7</maxWeakCount>
      <stageThreshold>-8.1486427783966064e-01</stageThreshold>
      <weakClassifiers>
        <_>
          <internalNodes>
            0 -1 22 -3.1669147312641144e-02</internalNodes>
          <leafValues>
            5.0000000000000000e-01 -6.8421053886413574e-01</leafValues></_>
        <_>
          <internalNodes>
            0 -1 44 1.0416812729090452e-03</internalNodes>
          <leafValues>
            -3.7203568220138550e-01 7.0129013061523438e-01</leafValues></_>
        <_>
          <internalNodes>
            0 -1 55 1.2785892467945814e-03</internalNodes>
          <leafValues>
            -5.0454258918762207e-01 5.0862956047058105e-01</leafValues></_>
        <_>
          <internalNodes>
            0 -1 24 -1.2743722647428513e-02</internalNodes>
          <leafValues>
            3.7627118825912476e-01 -6.6733121871948242e-01</leafValues></_>
        <_>
          <internalNodes>
            0 -1 14 -2.9378868639469147e-02</internalNodes>
          <leafValues>
            -9.5624518394470215e-01 2.7387702465057373e-01</leafValues></_>
        <_>
          <internalNodes>
            0 -1 51 3.1742889434099197e-02</internalNodes>
          <leafValues>
            -3.9870670437812805e-01 8.1704163551330566e-01</leafValues></_>
        <_>
          <internalNodes>
            0 -1 11 -7.4648737907409668e-02</internalNodes>
          <leafValues>
            5.2491325139999390e-01 -5.5742049217224121e-01</leafValues></_></weakClassifiers></_>
    <!-- stage 17 -->
    <_>
      <maxWeakCount>5</maxWeakCount>
      <stageThreshold>-3.3800816535949707e-01</stageThreshold>
      <weakClassifiers>
        <_>
          <internalNodes>
            0 -1 28 -8.8934466475620866e-04</internalNodes>
          <leafValues>
            5.0774526596069336e-01 -8.5798817873001099e-01</leafValues></_>
        <_>
          <internalNodes>
            0 -1 17 -1.1853404343128204e-01</internalNodes>
          <leafValues>
            -9.3518733978271484e-01 3.3584651350975037e-01</leafValues></_>
        <_>
          <internalNodes>
            0 -1 13 4.4340675231069326e-04</internalNodes>
          <leafValues>
            -7.5005167722702026e-01 3.7910288572311401e-01</leafValues></_>
        <_>
          <internalNodes>
            0 -1 52 -2.2581403027288616e-04</internalNodes>
          <leafValues>
            5.7931566238403320e-01 -5.1940774917602539e-01</leafValues></_>
        <_>
          <internalNodes>
            0 -1 36 -9.5258317887783051e-02</internalNodes>
          <leafValues>
            -8.3245152235031128e-01 3.5486951470375061e-01</leafValues></_></weakClassifiers></_></stages>
  <features>
    <_>
      <rects>
        <_>
          0 0 8 2 -1.</_>
        <_>
          4 0 4 2 2.</_></rects>
      <tilted>0</tilted></_>
    <_>
      <rects>
        <_>
          0 0 18 1 -1.</_>
        <_>
          6 0 6 1 3.</_></rects>
      <tilted>0</tilted></_>
    <_>
      <rects>
        <_>
          0 0 18 6 -1.</_>
        <_>
          0 3 18 3 2.</_></rects>
      <tilted>0</tilted></_>
    <_>
      <rects>
        <_>
          0 1 2 12 -1.</_>
        <_>
          0 5 2 4 3.</_></rects>
      <tilted>0</tilted></_>
    <_>
      <rects>
        <_>
          0 2 20 16 -1.</_>
        <_>
          0 10 20 8 2.</_></rects>
      <tilted>0</tilted></_>
    <_>
      <rects>
        <_>
          0 3 16 11 -1.</_>
        <_>
          8 3 8 11 2.</_></rects>
      <tilted>0</tilted></_>
    <_>
      <rects>
        <_>
          0 3 18 14 -1.</_>
        <_>
          9 3 9 14 2.</_></rects>
      <tilted>0</tilted></_>
    <_>
      <rects>
        <_>
          0 3 20 12 -1.</_>
        <_>
          0 7 20 4 3.</_></rects>
      <tilted>0</tilted></_>
    <_>
      <rects>
        <_>
          0 4 8 13 -1.</_>
        <_>
          4 4 4 13 2.</_></rects>
      <tilted>0</tilted></_>
    <_>
      <rects>
        <_>
          0 4 10 6 -1.</_>
        <_>
          0 4 5 3 2.</_>
        <_>
          5 7 5 3 2.</_></rects>
      <tilted>0</tilted></_>
    <_>
      <rects>
        <_>
          0 8 15 1 -1.</_>
        <_>
          5 8 5 1 3.</_></rects>
      <tilted>0</tilted></_>
    <_>
      <rects>
        <_>
          0 9 8 8 -1.</_>
        <_>
          4 9 4 8 2.</_></rects>
      <tilted>0</tilted></_>
    <_>
      <rects>
        <_>
          1 0 18 2 -1.</_>
        <_>
          10 0 9 2 2.</_></rects>
      <tilted>0</tilted></_>
    <_>
      <rects>
        <_>
          1 4 5 12 -1.</_>
        <_>
          1 8 5 4 3.</_></rects>
      <tilted>0</tilted></_>
    <_>
      <rects>
        <_>
          1 8 16 1 -1.</_>
        <_>
          9 8 8 1 2.</_></rects>
      <tilted>0</tilted></_>
    <_>
      <rects>
        <_>
          2 0 18 7 -1.</_>
        <_>
          8 0 6 7 3.</_></rects>
      <tilted>0</tilted></_>
    <_>
      <rects>
        <_>
          2 3 18 12 -1.</_>
        <_>
          8 3 6 12 3.</_></rects>
      <tilted>0</tilted></_>
    <_>
      <rects>
        <_>
          2 3 16 16 -1.</_>
        <_>
          10 3 8 16 2.</_></rects>
      <tilted>0</tilted></_>
    <_>
      <rects>
        <_>
          2 5 4 9 -1.</_>
        <_>
          2 8 4 3 3.</_></rects>
      <tilted>0</tilted></_>
    <_>
      <rects>
        <_>
          2 12 17 8 -1.</_>
        <_>
          2 16 17 4 2.</_></rects>
      <tilted>0</tilted></_>
    <_>
      <rects>
        <_>
          2 16 7 2 -1.</_>
        <_>
          2 17 7 1 2.</_></rects>
      <tilted>0</tilted></_>
    <_>
      <rects>
        <_>
          3 0 4 12 -1.</_>
        <_>
          5 0 2 12 2.</_></rects>
      <tilted>0</tilted></_>
    <_>
      <rects>
        <_>
          3 0 15 6 -1.</_>
        <_>
          8 0 5 6 3.</_></rects>
      <tilted>0</tilted></_>
    <_>
      <rects>
        <_>
          3 2 13 2 -1.</_>
        <_>
          3 3 13 1 2.</_></rects>
      <tilted>0</tilted></_>
    <_>
      <rects>
        <_>
          3 9 12 1 -1.</_>
        <_>
          9 9 6 1 2.</_></rects>
      <tilted>0</tilted></_>
    <_>
      <rects>
        <_>
          4 5 3 9 -1.</_>
        <_>
          4 8 3 3 3.</_></rects>
      <tilted>0</tilted></_>
    <_>
      <rects>
        <_>
          4 7 12 3 -1.</_>
        <_>
          10 7 6 3 2.</_></rects>
      <tilted>0</tilted></_>
    <_>
      <rects>
        <_>
          4 8 2 3 -1.</_>
        <_>
          4 9 2 1 3.</_></rects>
      <tilted>0</tilted></_>
    <_>
      <rects>
        <_>
          4 8 12 1 -1.</_>
        <_>
          10 8 6 1 2.</_></rects>
      <tilted>0</tilted></_>
    <_>
      <rects>
        <_>
          4 8 6 12 -1.</_>
        <_>
          4 12 6 4 3.</_></rects>
      <tilted>0</tilted></_>
    <_>
      <rects>
        <_>
          5 0 15 11 -1.</_>
        <_>
          10 0 5 11 3.</_></rects>
      <tilted>0</tilted></_>
    <_>
      <rects>
        <_>
          5 4 5 9 -1.</_>
        <_>
          5 7 5 3 3.</_></rects>
      <tilted>0</tilted></_>
    <_>
      <rects>
        <_>
          5 9 14 8 -1.</_>
        <_>
          12 9 7 8 2.</_></rects>
      <tilted>0</tilted></_>
    <_>
      <rects>
        <_>
          5 12 6 8 -1.</_>
        <_>
          5 16 6 4 2.</_></rects>
      <tilted>0</tilted></_>
    <_>
      <rects>
        <_>
          6 0 9 6 -1.</_>
        <_>
          6 3 9 3 2.</_></rects>
      <tilted>0</tilted></_>
    <_>
      <rects>
        <_>
          6 0 14 18 -1.</_>
        <_>
          6 9 14 9 2.</_></rects>
      <tilted>0</tilted></_>
    <_>
      <rects>
        <_>
          6 2 10 10 -1.</_>
        <_>
          6 7 10 5 2.</_></rects>
      <tilted>0</tilted></_>
    <_>
      <rects>
        <_>
          6 9 14 7 -1.</_>
        <_>
          13 9 7 7 2.</_></rects>
      <tilted>0</tilted></_>
    <_>
      <rects>
        <_>
          6 14 6 4 -1.</_>
        <_>
          9 14 3 4 2.</_></rects>
      <tilted>0</tilted></_>
    <_>
      <rects>
        <_>
          7 4 4 9 -1.</_>
        <_>
          7 7 4 3 3.</_></rects>
      <tilted>0</tilted></_>
    <_>
      <rects>
        <_>
          7 4 6 2 -1.</_>
        <_>
          7 5 6 1 2.</_></rects>
      <tilted>0</tilted></_>
    <_>
      <rects>
        <_>
          7 15 4 1 -1.</_>
        <_>
          9 15 2 1 2.</_></rects>
      <tilted>0</tilted></_>
    <_>
      <rects>
        <_>
          8 2 12 5 -1.</_>
        <_>
          14 2 6 5 2.</_></rects>
      <tilted>0</tilted></_>
    <_>
      <rects>
        <_>
          8 4 2 9 -1.</_>
        <_>
          8 7 2 3 3.</_></rects>
      <tilted>0</tilted></_>
    <_>
      <rects>
        <_>
          8 6 6 1 -1.</_>
        <_>
          10 6 2 1 3.</_></rects>
      <tilted>0</tilted></_>
    <_>
      <rects>
        <_>
          8 14 4 4 -1.</_>
        <_>
          10 14 2 4 2.</_></rects>
      <tilted>0</tilted></_>
    <_>
      <rects>
        <_>
          8 18 12 2 -1.</_>
        <_>
          14 18 6 2 2.</_></rects>
      <tilted>0</tilted></_>
    <_>
      <rects>
        <_>
          9 0 5 9 -1.</_>
        <_>
          9 3 5 3 3.</_></rects>
      <tilted>0</tilted></_>
    <_>
      <rects>
        <_>
          9 10 4 10 -1.</_>
        <_>
          9 15 4 5 2.</_></rects>
      <tilted>0</tilted></_>
    <_>
      <rects>
        <_>
          10 2 10 11 -1.</_>
        <_>
          15 2 5 11 2.</_></rects>
      <tilted>0</tilted></_>
    <_>
      <rects>
        <_>
          10 2 10 12 -1.</_>
        <_>
          15 2 5 12 2.</_></rects>
      <tilted>0</tilted></_>
    <_>
      <rects>
        <_>
          10 6 9 4 -1.</_>
        <_>
          13 6 3 4 3.</_></rects>
      <tilted>0</tilted></_>
    <_>
      <rects>
        <_>
          10 9 1 2 -1.</_>
        <_>
          10 10 1 1 2.</_></rects>
      <tilted>0</tilted></_>
    <_>
      <rects>
        <_>
          12 11 8 8 -1.</_>
        <_>
          16 11 4 8 2.</_></rects>
      <tilted>0</tilted></_>
    <_>
      <rects>
        <_>
          14 7 6 10 -1.</_>
        <_>
          17 7 3 10 2.</_></rects>
      <tilted>0</tilted></_>
    <_>
      <rects>
        <_>
          16 5 2 12 -1.</_>
        <_>
          17 5 1 12 2.</_></rects>
      <tilted>0</tilted></_>
    <_>
      <rects>
        <_>
          19 2 1 18 -1.</_>
        <_>
          19 8 1 6 3.</_></rects>
      <tilted>0</tilted></_></features></cascade>
</opencv_storage>
