<?xml version="1.0"?>
<opencv_storage>
<cascade>
  <stageType>BOOST</stageType>
  <featureType>HAAR</featureType>
  <height>20</height>
  <width>20</width>
  <stageParams>
    <boostType>GAB</boostType>
    <minHitRate>9.9500000476837158e-01</minHitRate>
    <maxFalseAlarm>5.0000000000000000e-01</maxFalseAlarm>
    <weightTrimRate>9.4999999999999996e-01</weightTrimRate>
    <maxDepth>1</maxDepth>
    <maxWeakCount>100</maxWeakCount></stageParams>
  <featureParams>
    <maxCatCount>0</maxCatCount>
    <featSize>1</featSize>
    <mode>BASIC</mode></featureParams>
  <stageNum>11</stageNum>
  <stages>
    <!-- stage 0 -->
    <_>
      <maxWeakCount>2</maxWeakCount>
      <stageThreshold>3.5357531160116196e-03</stageThreshold>
      <weakClassifiers>
        <_>
          <internalNodes>
            0 -1 10 -1.4226019382476807e-01</internalNodes>
          <leafValues>
            9.9498748779296875e-01 -9.8671096563339233e-01</leafValues></_>
        <_>
          <internalNodes>
            0 -1 15 -7.2933897376060486e-02</internalNodes>
          <leafValues>
            9.9024671316146851e-01 -9.9350190162658691e-01</leafValues></_></weakClassifiers></_>
    <!-- stage 1 -->
    <_>
      <maxWeakCount>1</maxWeakCount>
      <stageThreshold>9.1387557983398438e-01</stageThreshold>
      <weakClassifiers>
        <_>
          <internalNodes>
            0 -1 16 -1.8901994824409485e-01</internalNodes>
          <leafValues>
            9.1387557983398438e-01 -1.</leafValues></_></weakClassifiers></_>
    <!-- stage 2 -->
    <_>
      <maxWeakCount>2</maxWeakCount>
      <stageThreshold>-3.0955037474632263e-01</stageThreshold>
      <weakClassifiers>
        <_>
          <internalNodes>
            0 -1 21 -2.0272415131330490e-02</internalNodes>
          <leafValues>
            8.5948479175567627e-01 -9.7802197933197021e-01</leafValues></_>
        <_>
          <internalNodes>
            0 -1 4 -3.8611727952957153e-01</internalNodes>
          <leafValues>
            6.6847163438796997e-01 -9.6382772922515869e-01</leafValues></_></weakClassifiers></_>
    <!-- stage 3 -->
    <_>
      <maxWeakCount>3</maxWeakCount>
      <stageThreshold>-1.1215605735778809e+00</stageThreshold>
      <weakClassifiers>
        <_>
          <internalNodes>
            0 -1 2 -1.8519319593906403e-02</internalNodes>
          <leafValues>
            7.9439252614974976e-01 -8.8235294818878174e-01</leafValues></_>
        <_>
          <internalNodes>
            0 -1 26 2.9505869373679161e-02</internalNodes>
          <leafValues>
            -8.1702011823654175e-01 7.0344877243041992e-01</leafValues></_>
        <_>
          <internalNodes>
            0 -1 11 1.3939598202705383e-01</internalNodes>
          <leafValues>
            -1. 5.7781255245208740e-01</leafValues></_></weakClassifiers></_>
    <!-- stage 4 -->
    <_>
      <maxWeakCount>3</maxWeakCount>
      <stageThreshold>5.4090339690446854e-02</stageThreshold>
      <weakClassifiers>
        <_>
          <internalNodes>
            0 -1 27 2.9494751244783401e-02</internalNodes>
          <leafValues>
            -8.6614173650741577e-01 7.1748876571655273e-01</leafValues></_>
        <_>
          <internalNodes>
            0 -1 14 2.0910140872001648e-01</internalNodes>
          <leafValues>
            -9.4388812780380249e-01 4.8834821581840515e-01</leafValues></_>
        <_>
          <internalNodes>
            0 -1 20 -2.9329104349017143e-02</internalNodes>
          <leafValues>
            4.3188384175300598e-01 -9.7189313173294067e-01</leafValues></_></weakClassifiers></_>
    <!-- stage 5 -->
    <_>
      <maxWeakCount>3</maxWeakCount>
      <stageThreshold>3.4731227904558182e-02</stageThreshold>
      <weakClassifiers>
        <_>
          <internalNodes>
            0 -1 29 -1.8308380094822496e-04</internalNodes>
          <leafValues>
            -9.6610170602798462e-01 5.1816445589065552e-01</leafValues></_>
        <_>
          <internalNodes>
            0 -1 28 -2.7375129982829094e-02</internalNodes>
          <leafValues>
            5.8132767677307129e-01 -7.0821702480316162e-01</leafValues></_>
        <_>
          <internalNodes>
            0 -1 13 2.4484550522174686e-05</internalNodes>
          <leafValues>
            4.1950523853302002e-01 -1.</leafValues></_></weakClassifiers></_>
    <!-- stage 6 -->
    <_>
      <maxWeakCount>3</maxWeakCount>
      <stageThreshold>-1.0924750566482544e+00</stageThreshold>
      <weakClassifiers>
        <_>
          <internalNodes>
            0 -1 29 1.1400429502828047e-04</internalNodes>
          <leafValues>
            5.5381602048873901e-01 -9.6825397014617920e-01</leafValues></_>
        <_>
          <internalNodes>
            0 -1 5 -1.3469317927956581e-02</internalNodes>
          <leafValues>
            5.3760677576065063e-01 -7.8521573543548584e-01</leafValues></_>
        <_>
          <internalNodes>
            0 -1 18 1.0954066179692745e-02</internalNodes>
          <leafValues>
            -8.6107534170150757e-01 4.3898400664329529e-01</leafValues></_></weakClassifiers></_>
    <!-- stage 7 -->
    <_>
      <maxWeakCount>3</maxWeakCount>
      <stageThreshold>1.6553847817704082e-03</stageThreshold>
      <weakClassifiers>
        <_>
          <internalNodes>
            0 -1 1 -1.9437646865844727e-01</internalNodes>
          <leafValues>
            5.4474705457687378e-01 -9.6774190664291382e-01</leafValues></_>
        <_>
          <internalNodes>
            0 -1 6 8.6239892989397049e-03</internalNodes>
          <leafValues>
            -7.4705326557159424e-01 5.5739122629165649e-01</leafValues></_>
        <_>
          <internalNodes>
            0 -1 13 -4.8336922191083431e-05</internalNodes>
          <leafValues>
            -9.8781824111938477e-01 4.1200608015060425e-01</leafValues></_></weakClassifiers></_>
    <!-- stage 8 -->
    <_>
      <maxWeakCount>4</maxWeakCount>
      <stageThreshold>-3.2719352841377258e-01</stageThreshold>
      <weakClassifiers>
        <_>
          <internalNodes>
            0 -1 25 1.0118780657649040e-02</internalNodes>
          <leafValues>
            -5.4128438234329224e-01 7.4262732267379761e-01</leafValues></_>
        <_>
          <internalNodes>
            0 -1 23 2.4444211740046740e-03</internalNodes>
          <leafValues>
            -8.5794872045516968e-01 4.8594510555267334e-01</leafValues></_>
        <_>
          <internalNodes>
            0 -1 8 6.2366249039769173e-03</internalNodes>
          <leafValues>
            -5.3412657976150513e-01 6.7936462163925171e-01</leafValues></_>
        <_>
          <internalNodes>
            0 -1 24 2.0000137737952173e-04</internalNodes>
          <leafValues>
            -1. 3.9267495274543762e-01</leafValues></_></weakClassifiers></_>
    <!-- stage 9 -->
    <_>
      <maxWeakCount>5</maxWeakCount>
      <stageThreshold>-1.3896548748016357e-01</stageThreshold>
      <weakClassifiers>
        <_>
          <internalNodes>
            0 -1 22 -5.7151820510625839e-04</internalNodes>
          <leafValues>
            -8.8950276374816895e-01 5.0289016962051392e-01</leafValues></_>
        <_>
          <internalNodes>
            0 -1 3 1.1211903765797615e-03</internalNodes>
          <leafValues>
            3.4578794240951538e-01 -9.9234294891357422e-01</leafValues></_>
        <_>
          <internalNodes>
            0 -1 7 9.8330620676279068e-03</internalNodes>
          <leafValues>
            -5.9010118246078491e-01 5.2758622169494629e-01</leafValues></_>
        <_>
          <internalNodes>
            0 -1 9 -4.4032979011535645e-01</internalNodes>
          <leafValues>
            4.2189350724220276e-01 -8.6930334568023682e-01</leafValues></_>
        <_>
          <internalNodes>
            0 -1 19 3.8068052381277084e-03</internalNodes>
          <leafValues>
            -4.9196630716323853e-01 7.4646645784378052e-01</leafValues></_></weakClassifiers></_>
    <!-- stage 10 -->
    <_>
      <maxWeakCount>3</maxWeakCount>
      <stageThreshold>-8.1923762336373329e-03</stageThreshold>
      <weakClassifiers>
        <_>
          <internalNodes>
            0 -1 12 -9.2825833708047867e-03</internalNodes>
          <leafValues>
            5.5600816011428833e-01 -8.2775121927261353e-01</leafValues></_>
        <_>
          <internalNodes>
            0 -1 0 2.0316128939157352e-05</internalNodes>
          <leafValues>
            3.9973571896553040e-01 -9.7906744480133057e-01</leafValues></_>
        <_>
          <internalNodes>
            0 -1 17 3.7542511709034443e-03</internalNodes>
          <leafValues>
            -8.3527040481567383e-01 4.1982311010360718e-01</leafValues></_></weakClassifiers></_></stages>
  <features>
    <_>
      <rects>
        <_>
          0 0 1 15 -1.</_>
        <_>
          0 5 1 5 3.</_></rects>
      <tilted>0</tilted></_>
    <_>
      <rects>
        <_>
          0 1 12 15 -1.</_>
        <_>
          6 1 6 15 2.</_></rects>
      <tilted>0</tilted></_>
    <_>
      <rects>
        <_>
          0 7 6 7 -1.</_>
        <_>
          3 7 3 7 2.</_></rects>
      <tilted>0</tilted></_>
    <_>
      <rects>
        <_>
          0 7 20 6 -1.</_>
        <_>
          10 7 10 6 2.</_></rects>
      <tilted>0</tilted></_>
    <_>
      <rects>
        <_>
          1 0 18 15 -1.</_>
        <_>
          7 0 6 15 3.</_></rects>
      <tilted>0</tilted></_>
    <_>
      <rects>
        <_>
          1 7 4 10 -1.</_>
        <_>
          3 7 2 10 2.</_></rects>
      <tilted>0</tilted></_>
    <_>
      <rects>
        <_>
          1 8 4 12 -1.</_>
        <_>
          1 8 2 6 2.</_>
        <_>
          3 14 2 6 2.</_></rects>
      <tilted>0</tilted></_>
    <_>
      <rects>
        <_>
          2 7 9 1 -1.</_>
        <_>
          5 7 3 1 3.</_></rects>
      <tilted>0</tilted></_>
    <_>
      <rects>
        <_>
          3 9 5 3 -1.</_>
        <_>
          3 10 5 1 3.</_></rects>
      <tilted>0</tilted></_>
    <_>
      <rects>
        <_>
          4 2 11 18 -1.</_>
        <_>
          4 8 11 6 3.</_></rects>
      <tilted>0</tilted></_>
    <_>
      <rects>
        <_>
          4 8 12 6 -1.</_>
        <_>
          8 8 4 6 3.</_></rects>
      <tilted>0</tilted></_>
    <_>
      <rects>
        <_>
          4 10 11 10 -1.</_>
        <_>
          4 15 11 5 2.</_></rects>
      <tilted>0</tilted></_>
    <_>
      <rects>
        <_>
          5 0 1 14 -1.</_>
        <_>
          5 7 1 7 2.</_></rects>
      <tilted>0</tilted></_>
    <_>
      <rects>
        <_>
          5 0 15 2 -1.</_>
        <_>
          10 0 5 2 3.</_></rects>
      <tilted>0</tilted></_>
    <_>
      <rects>
        <_>
          6 0 14 16 -1.</_>
        <_>
          13 0 7 16 2.</_></rects>
      <tilted>0</tilted></_>
    <_>
      <rects>
        <_>
          6 8 9 4 -1.</_>
        <_>
          9 8 3 4 3.</_></rects>
      <tilted>0</tilted></_>
    <_>
      <rects>
        <_>
          7 0 8 12 -1.</_>
        <_>
          7 6 8 6 2.</_></rects>
      <tilted>0</tilted></_>
    <_>
      <rects>
        <_>
          7 6 12 1 -1.</_>
        <_>
          13 6 6 1 2.</_></rects>
      <tilted>0</tilted></_>
    <_>
      <rects>
        <_>
          7 14 7 6 -1.</_>
        <_>
          7 17 7 3 2.</_></rects>
      <tilted>0</tilted></_>
    <_>
      <rects>
        <_>
          9 2 3 6 -1.</_>
        <_>
          10 2 1 6 3.</_></rects>
      <tilted>0</tilted></_>
    <_>
      <rects>
        <_>
          9 7 3 6 -1.</_>
        <_>
          9 9 3 2 3.</_></rects>
      <tilted>0</tilted></_>
    <_>
      <rects>
        <_>
          9 7 4 4 -1.</_>
        <_>
          9 9 4 2 2.</_></rects>
      <tilted>0</tilted></_>
    <_>
      <rects>
        <_>
          9 10 2 1 -1.</_>
        <_>
          10 10 1 1 2.</_></rects>
      <tilted>0</tilted></_>
    <_>
      <rects>
        <_>
          10 9 2 3 -1.</_>
        <_>
          11 9 1 3 2.</_></rects>
      <tilted>0</tilted></_>
    <_>
      <rects>
        <_>
          10 10 1 2 -1.</_>
        <_>
          10 11 1 1 2.</_></rects>
      <tilted>0</tilted></_>
    <_>
      <rects>
        <_>
          12 10 2 6 -1.</_>
        <_>
          12 12 2 2 3.</_></rects>
      <tilted>0</tilted></_>
    <_>
      <rects>
        <_>
          14 1 6 13 -1.</_>
        <_>
          17 1 3 13 2.</_></rects>
      <tilted>0</tilted></_>
    <_>
      <rects>
        <_>
          14 7 6 7 -1.</_>
        <_>
          17 7 3 7 2.</_></rects>
      <tilted>0</tilted></_>
    <_>
      <rects>
        <_>
          15 1 1 18 -1.</_>
        <_>
          15 7 1 6 3.</_></rects>
      <tilted>0</tilted></_>
    <_>
      <rects>
        <_>
          19 0 1 20 -1.</_>
        <_>
          19 10 1 10 2.</_></rects>
      <tilted>0</tilted></_></features></cascade>
</opencv_storage>
