<?xml version="1.0"?>
<opencv_storage>
<stage11>
  <maxWeakCount>13</maxWeakCount>
  <stageThreshold>-1.2516794204711914e+00</stageThreshold>
  <weakClassifiers>
    <_>
      <internalNodes>
        0 -1 85 3.8914652541279793e-03</internalNodes>
      <leafValues>
        -7.5862067937850952e-01 1.7548745870590210e-01</leafValues></_>
    <_>
      <internalNodes>
        0 -1 103 3.8504839176312089e-04</internalNodes>
      <leafValues>
        5.0108045339584351e-01 -2.8910446166992188e-01</leafValues></_>
    <_>
      <internalNodes>
        0 -1 37 2.2902097553014755e-02</internalNodes>
      <leafValues>
        -4.0221908688545227e-01 3.8454192876815796e-01</leafValues></_>
    <_>
      <internalNodes>
        0 -1 63 1.0061698965728283e-02</internalNodes>
      <leafValues>
        -5.4087644815444946e-01 2.2513322532176971e-01</leafValues></_>
    <_>
      <internalNodes>
        0 -1 17 9.9424794316291809e-03</internalNodes>
      <leafValues>
        -7.8665930032730103e-01 1.2115533649921417e-01</leafValues></_>
    <_>
      <internalNodes>
        0 -1 25 6.1596287414431572e-03</internalNodes>
      <leafValues>
        -4.9637106060981750e-01 1.9416195154190063e-01</leafValues></_>
    <_>
      <internalNodes>
        0 -1 6 2.6399637135909870e-05</internalNodes>
      <leafValues>
        2.7309241890907288e-01 -4.6013033390045166e-01</leafValues></_>
    <_>
      <internalNodes>
        0 -1 13 4.0306985378265381e-02</internalNodes>
      <leafValues>
        1.1618053913116455e-01 -8.2872402667999268e-01</leafValues></_>
    <_>
      <internalNodes>
        0 -1 56 4.9246868002228439e-05</internalNodes>
      <leafValues>
        2.8718999028205872e-01 -5.2220177650451660e-01</leafValues></_>
    <_>
      <internalNodes>
        0 -1 111 9.5852967351675034e-03</internalNodes>
      <leafValues>
        -5.8867305517196655e-01 2.1861863136291504e-01</leafValues></_>
    <_>
      <internalNodes>
        0 -1 3 1.9123874604701996e-02</internalNodes>
      <leafValues>
        9.1903097927570343e-02 -8.4472876787185669e-01</leafValues></_>
    <_>
      <internalNodes>
        0 -1 84 2.3446593433618546e-02</internalNodes>
      <leafValues>
        7.1091927587985992e-02 -8.5353839397430420e-01</leafValues></_>
    <_>
      <internalNodes>
        0 -1 85 2.9839569833711721e-05</internalNodes>
      <leafValues>
        -8.4601294994354248e-01 9.8970189690589905e-02</leafValues></_></weakClassifiers></stage11>
</opencv_storage>
