<?xml version="1.0"?>
<opencv_storage>
<stage13>
  <maxWeakCount>13</maxWeakCount>
  <stageThreshold>-1.0792118310928345e+00</stageThreshold>
  <weakClassifiers>
    <_>
      <internalNodes>
        0 -1 27 7.2822578251361847e-02</internalNodes>
      <leafValues>
        -3.2432430982589722e-01 3.9664804935455322e-01</leafValues></_>
    <_>
      <internalNodes>
        0 -1 37 5.3184069693088531e-02</internalNodes>
      <leafValues>
        -2.8990304470062256e-01 4.1816785931587219e-01</leafValues></_>
    <_>
      <internalNodes>
        0 -1 80 7.6304543763399124e-03</internalNodes>
      <leafValues>
        -5.9415489435195923e-01 1.8344689905643463e-01</leafValues></_>
    <_>
      <internalNodes>
        0 -1 40 3.0068058520555496e-02</internalNodes>
      <leafValues>
        1.7131216824054718e-01 -6.4016276597976685e-01</leafValues></_>
    <_>
      <internalNodes>
        0 -1 44 6.5526468679308891e-03</internalNodes>
      <leafValues>
        -8.7330818176269531e-01 7.4759311974048615e-02</leafValues></_>
    <_>
      <internalNodes>
        0 -1 71 3.1873275293037295e-04</internalNodes>
      <leafValues>
        -9.0959322452545166e-01 7.5254298746585846e-02</leafValues></_>
    <_>
      <internalNodes>
        0 -1 136 5.2524991333484650e-02</internalNodes>
      <leafValues>
        8.8963493704795837e-02 -8.4290254116058350e-01</leafValues></_>
    <_>
      <internalNodes>
        0 -1 18 1.2419476173818111e-02</internalNodes>
      <leafValues>
        -3.6799547076225281e-01 2.0738822221755981e-01</leafValues></_>
    <_>
      <internalNodes>
        0 -1 20 4.1769802919588983e-05</internalNodes>
      <leafValues>
        3.1652423739433289e-01 -2.8621539473533630e-01</leafValues></_>
    <_>
      <internalNodes>
        0 -1 23 8.2799103111028671e-03</internalNodes>
      <leafValues>
        -3.3458080887794495e-01 2.5960734486579895e-01</leafValues></_>
    <_>
      <internalNodes>
        0 -1 28 1.7866024374961853e-01</internalNodes>
      <leafValues>
        -1.7026016116142273e-01 7.1123319864273071e-01</leafValues></_>
    <_>
      <internalNodes>
        0 -1 60 2.8864905238151550e-02</internalNodes>
      <leafValues>
        1.4498050510883331e-01 -7.9059356451034546e-01</leafValues></_>
    <_>
      <internalNodes>
        0 -1 24 1.0206189006567001e-02</internalNodes>
      <leafValues>
        -3.8003641366958618e-01 2.2099196910858154e-01</leafValues></_></weakClassifiers></stage13>
</opencv_storage>
