<?xml version="1.0"?>
<opencv_storage>
<cascade>
  <stageType>BOOST</stageType>
  <featureType>HOG</featureType>
  <height>20</height>
  <width>20</width>
  <stageParams>
    <boostType>GAB</boostType>
    <minHitRate>9.9500000476837158e-01</minHitRate>
    <maxFalseAlarm>5.0000000000000000e-01</maxFalseAlarm>
    <weightTrimRate>9.4999999999999996e-01</weightTrimRate>
    <maxDepth>1</maxDepth>
    <maxWeakCount>100</maxWeakCount></stageParams>
  <featureParams>
    <maxCatCount>0</maxCatCount>
    <featSize>36</featSize></featureParams>
  <stageNum>19</stageNum>
  <stages>
    <!-- stage 0 -->
    <_>
      <maxWeakCount>2</maxWeakCount>
      <stageThreshold>6.9356253370642662e-03</stageThreshold>
      <weakClassifiers>
        <_>
          <internalNodes>
            0 -1 34 5.6584650883451104e-04</internalNodes>
          <leafValues>
            7.9123175144195557e-01 -9.1082805395126343e-01</leafValues></_>
        <_>
          <internalNodes>
            0 -1 15 4.2573064565658569e-02</internalNodes>
          <leafValues>
            -7.8429609537124634e-01 9.4114434719085693e-01</leafValues></_></weakClassifiers></_>
    <!-- stage 1 -->
    <_>
      <maxWeakCount>2</maxWeakCount>
      <stageThreshold>-4.5671492815017700e-01</stageThreshold>
      <weakClassifiers>
        <_>
          <internalNodes>
            0 -1 21 1.0652534663677216e-02</internalNodes>
          <leafValues>
            -8.4033614397048950e-01 7.3839664459228516e-01</leafValues></_>
        <_>
          <internalNodes>
            0 -1 41 4.4697863049805164e-03</internalNodes>
          <leafValues>
            -9.6196967363357544e-01 3.8362121582031250e-01</leafValues></_></weakClassifiers></_>
    <!-- stage 2 -->
    <_>
      <maxWeakCount>4</maxWeakCount>
      <stageThreshold>-6.3077360391616821e-01</stageThreshold>
      <weakClassifiers>
        <_>
          <internalNodes>
            0 -1 27 5.5570602416992188e-02</internalNodes>
          <leafValues>
            -6.9449377059936523e-01 8.8113695383071899e-01</leafValues></_>
        <_>
          <internalNodes>
            0 -1 43 1.2983893975615501e-02</internalNodes>
          <leafValues>
            -8.0738317966461182e-01 5.1495814323425293e-01</leafValues></_>
        <_>
          <internalNodes>
            0 -1 14 1.0101788211613894e-03</internalNodes>
          <leafValues>
            5.2217441797256470e-01 -8.7957090139389038e-01</leafValues></_>
        <_>
          <internalNodes>
            0 -1 5 9.7082238644361496e-03</internalNodes>
          <leafValues>
            -8.0798965692520142e-01 4.2833289504051208e-01</leafValues></_></weakClassifiers></_>
    <!-- stage 3 -->
    <_>
      <maxWeakCount>3</maxWeakCount>
      <stageThreshold>-1.0935885906219482e+00</stageThreshold>
      <weakClassifiers>
        <_>
          <internalNodes>
            0 -1 8 1.5630232519470155e-04</internalNodes>
          <leafValues>
            8.8008564710617065e-01 -9.5445132255554199e-01</leafValues></_>
        <_>
          <internalNodes>
            0 -1 39 8.3158689085394144e-04</internalNodes>
          <leafValues>
            9.6052849292755127e-01 -8.5343712568283081e-01</leafValues></_>
        <_>
          <internalNodes>
            0 -1 46 4.5336475595831871e-03</internalNodes>
          <leafValues>
            7.1429985761642456e-01 -9.2507576942443848e-01</leafValues></_></weakClassifiers></_>
    <!-- stage 4 -->
    <_>
      <maxWeakCount>2</maxWeakCount>
      <stageThreshold>-1.4994035661220551e-01</stageThreshold>
      <weakClassifiers>
        <_>
          <internalNodes>
            0 -1 1 7.5013580499216914e-04</internalNodes>
          <leafValues>
            7.9281181097030640e-01 -8.9098531007766724e-01</leafValues></_>
        <_>
          <internalNodes>
            0 -1 40 8.5224113718140870e-05</internalNodes>
          <leafValues>
            7.4104499816894531e-01 -8.0656284093856812e-01</leafValues></_></weakClassifiers></_>
    <!-- stage 5 -->
    <_>
      <maxWeakCount>4</maxWeakCount>
      <stageThreshold>-5.6271070241928101e-01</stageThreshold>
      <weakClassifiers>
        <_>
          <internalNodes>
            0 -1 27 7.6089307665824890e-02</internalNodes>
          <leafValues>
            -6.2867647409439087e-01 7.1921181678771973e-01</leafValues></_>
        <_>
          <internalNodes>
            0 -1 39 3.0636962037533522e-04</internalNodes>
          <leafValues>
            4.4681844115257263e-01 -7.7526652812957764e-01</leafValues></_>
        <_>
          <internalNodes>
            0 -1 5 9.3599744141101837e-03</internalNodes>
          <leafValues>
            -8.6428034305572510e-01 3.4597390890121460e-01</leafValues></_>
        <_>
          <internalNodes>
            0 -1 23 1.7665721476078033e-02</internalNodes>
          <leafValues>
            -5.5397647619247437e-01 4.9525839090347290e-01</leafValues></_></weakClassifiers></_>
    <!-- stage 6 -->
    <_>
      <maxWeakCount>4</maxWeakCount>
      <stageThreshold>-1.7519109249114990e+00</stageThreshold>
      <weakClassifiers>
        <_>
          <internalNodes>
            0 -1 2 4.8350768338423222e-05</internalNodes>
          <leafValues>
            4.2122185230255127e-01 -9.5121949911117554e-01</leafValues></_>
        <_>
          <internalNodes>
            0 -1 15 1.2227384746074677e-01</internalNodes>
          <leafValues>
            -5.2554076910018921e-01 6.6743201017379761e-01</leafValues></_>
        <_>
          <internalNodes>
            0 -1 48 3.2922129321377724e-05</internalNodes>
          <leafValues>
            3.9425083994865417e-01 -7.6536601781845093e-01</leafValues></_>
        <_>
          <internalNodes>
            0 -1 8 4.7797329898457974e-05</internalNodes>
          <leafValues>
            2.3636360466480255e-01 -8.8222604990005493e-01</leafValues></_></weakClassifiers></_>
    <!-- stage 7 -->
    <_>
      <maxWeakCount>4</maxWeakCount>
      <stageThreshold>-9.3612754344940186e-01</stageThreshold>
      <weakClassifiers>
        <_>
          <internalNodes>
            0 -1 15 8.1557929515838623e-02</internalNodes>
          <leafValues>
            -6.1685824394226074e-01 6.3551402091979980e-01</leafValues></_>
        <_>
          <internalNodes>
            0 -1 43 4.8023471608757973e-03</internalNodes>
          <leafValues>
            -9.6731382608413696e-01 3.7272158265113831e-01</leafValues></_>
        <_>
          <internalNodes>
            0 -1 1 2.3464700207114220e-03</internalNodes>
          <leafValues>
            2.5678372383117676e-01 -9.1280007362365723e-01</leafValues></_>
        <_>
          <internalNodes>
            0 -1 30 1.0490966960787773e-02</internalNodes>
          <leafValues>
            2.2080920636653900e-01 -8.4503149986267090e-01</leafValues></_></weakClassifiers></_>
    <!-- stage 8 -->
    <_>
      <maxWeakCount>5</maxWeakCount>
      <stageThreshold>-6.0309982299804688e-01</stageThreshold>
      <weakClassifiers>
        <_>
          <internalNodes>
            0 -1 12 5.4216897115111351e-03</internalNodes>
          <leafValues>
            3.6808845400810242e-01 -8.9274448156356812e-01</leafValues></_>
        <_>
          <internalNodes>
            0 -1 15 1.5013678371906281e-01</internalNodes>
          <leafValues>
            -4.5905742049217224e-01 7.7607989311218262e-01</leafValues></_>
        <_>
          <internalNodes>
            0 -1 36 3.3882894058478996e-05</internalNodes>
          <leafValues>
            -9.5499318838119507e-01 2.8379359841346741e-01</leafValues></_>
        <_>
          <internalNodes>
            0 -1 43 1.2969207018613815e-02</internalNodes>
          <leafValues>
            -8.6529260873794556e-01 2.8299957513809204e-01</leafValues></_>
        <_>
          <internalNodes>
            0 -1 43 6.2714867293834686e-02</internalNodes>
          <leafValues>
            1.8190892040729523e-01 -9.2389529943466187e-01</leafValues></_></weakClassifiers></_>
    <!-- stage 9 -->
    <_>
      <maxWeakCount>4</maxWeakCount>
      <stageThreshold>-6.3042765855789185e-01</stageThreshold>
      <weakClassifiers>
        <_>
          <internalNodes>
            0 -1 46 3.1021620088722557e-05</internalNodes>
          <leafValues>
            5.3786408901214600e-01 -7.5172412395477295e-01</leafValues></_>
        <_>
          <internalNodes>
            0 -1 3 2.7031218633055687e-04</internalNodes>
          <leafValues>
            5.6401765346527100e-01 -5.3373932838439941e-01</leafValues></_>
        <_>
          <internalNodes>
            0 -1 5 8.4088556468486786e-03</internalNodes>
          <leafValues>
            -8.9601409435272217e-01 2.8426122665405273e-01</leafValues></_>
        <_>
          <internalNodes>
            0 -1 17 2.9518473893404007e-03</internalNodes>
          <leafValues>
            5.1220875978469849e-01 -7.2698241472244263e-01</leafValues></_></weakClassifiers></_>
    <!-- stage 10 -->
    <_>
      <maxWeakCount>7</maxWeakCount>
      <stageThreshold>-1.3074411153793335e+00</stageThreshold>
      <weakClassifiers>
        <_>
          <internalNodes>
            0 -1 27 1.1125861853361130e-01</internalNodes>
          <leafValues>
            -4.6858167648315430e-01 5.3689569234848022e-01</leafValues></_>
        <_>
          <internalNodes>
            0 -1 7 5.8699608780443668e-04</internalNodes>
          <leafValues>
            3.5393488407135010e-01 -7.7955055236816406e-01</leafValues></_>
        <_>
          <internalNodes>
            0 -1 43 8.6065735667943954e-03</internalNodes>
          <leafValues>
            -9.1220486164093018e-01 2.0573812723159790e-01</leafValues></_>
        <_>
          <internalNodes>
            0 -1 5 5.1240228116512299e-02</internalNodes>
          <leafValues>
            2.3834933340549469e-01 -9.3461084365844727e-01</leafValues></_>
        <_>
          <internalNodes>
            0 -1 11 1.6970184445381165e-01</internalNodes>
          <leafValues>
            -3.1004682183265686e-01 7.9252809286117554e-01</leafValues></_>
        <_>
          <internalNodes>
            0 -1 12 3.3049944322556257e-03</internalNodes>
          <leafValues>
            3.1436058878898621e-01 -6.6035139560699463e-01</leafValues></_>
        <_>
          <internalNodes>
            0 -1 18 1.4985457062721252e-02</internalNodes>
          <leafValues>
            -4.7175762057304382e-01 4.6700194478034973e-01</leafValues></_></weakClassifiers></_>
    <!-- stage 11 -->
    <_>
      <maxWeakCount>10</maxWeakCount>
      <stageThreshold>-1.3713402748107910e+00</stageThreshold>
      <weakClassifiers>
        <_>
          <internalNodes>
            0 -1 0 4.7809637180762365e-05</internalNodes>
          <leafValues>
            2.2478386759757996e-01 -8.0468750000000000e-01</leafValues></_>
        <_>
          <internalNodes>
            0 -1 48 3.9605976780876517e-05</internalNodes>
          <leafValues>
            2.1212258934974670e-01 -8.4618258476257324e-01</leafValues></_>
        <_>
          <internalNodes>
            0 -1 15 1.3044798374176025e-01</internalNodes>
          <leafValues>
            -4.0041410923004150e-01 5.8270108699798584e-01</leafValues></_>
        <_>
          <internalNodes>
            0 -1 5 2.7981468010693789e-03</internalNodes>
          <leafValues>
            -9.6771740913391113e-01 2.4084448814392090e-01</leafValues></_>
        <_>
          <internalNodes>
            0 -1 17 1.9155070185661316e-04</internalNodes>
          <leafValues>
            4.5069435238838196e-01 -4.7997418045997620e-01</leafValues></_>
        <_>
          <internalNodes>
            0 -1 26 9.2772938311100006e-02</internalNodes>
          <leafValues>
            2.1089489758014679e-01 -9.1370958089828491e-01</leafValues></_>
        <_>
          <internalNodes>
            0 -1 43 1.1016297154128551e-02</internalNodes>
          <leafValues>
            -8.3716130256652832e-01 1.4727067947387695e-01</leafValues></_>
        <_>
          <internalNodes>
            0 -1 30 7.8932624310255051e-03</internalNodes>
          <leafValues>
            1.9318477809429169e-01 -7.4003934860229492e-01</leafValues></_>
        <_>
          <internalNodes>
            0 -1 20 6.5337464213371277e-02</internalNodes>
          <leafValues>
            1.7576467990875244e-01 -8.2709693908691406e-01</leafValues></_>
        <_>
          <internalNodes>
            0 -1 1 9.4778826460242271e-03</internalNodes>
          <leafValues>
            1.4691923558712006e-01 -9.7580552101135254e-01</leafValues></_></weakClassifiers></_>
    <!-- stage 12 -->
    <_>
      <maxWeakCount>7</maxWeakCount>
      <stageThreshold>-1.1361193656921387e+00</stageThreshold>
      <weakClassifiers>
        <_>
          <internalNodes>
            0 -1 34 2.3043509281706065e-04</internalNodes>
          <leafValues>
            2.5108852982521057e-01 -8.5440611839294434e-01</leafValues></_>
        <_>
          <internalNodes>
            0 -1 27 1.1393272131681442e-01</internalNodes>
          <leafValues>
            -4.4697755575180054e-01 4.9013796448707581e-01</leafValues></_>
        <_>
          <internalNodes>
            0 -1 43 1.4483237639069557e-02</internalNodes>
          <leafValues>
            -7.2570157051086426e-01 2.5800135731697083e-01</leafValues></_>
        <_>
          <internalNodes>
            0 -1 30 4.7411751002073288e-03</internalNodes>
          <leafValues>
            3.3262038230895996e-01 -7.9647409915924072e-01</leafValues></_>
        <_>
          <internalNodes>
            0 -1 4 6.8876775912940502e-03</internalNodes>
          <leafValues>
            -6.0721337795257568e-01 3.0373668670654297e-01</leafValues></_>
        <_>
          <internalNodes>
            0 -1 28 1.8657340109348297e-01</internalNodes>
          <leafValues>
            -2.8733921051025391e-01 7.2418451309204102e-01</leafValues></_>
        <_>
          <internalNodes>
            0 -1 44 8.7927104905247688e-03</internalNodes>
          <leafValues>
            -5.7750070095062256e-01 3.4740349650382996e-01</leafValues></_></weakClassifiers></_>
    <!-- stage 13 -->
    <_>
      <maxWeakCount>8</maxWeakCount>
      <stageThreshold>-1.1206234693527222e+00</stageThreshold>
      <weakClassifiers>
        <_>
          <internalNodes>
            0 -1 15 1.0717001557350159e-01</internalNodes>
          <leafValues>
            -5.1660513877868652e-01 5.6372547149658203e-01</leafValues></_>
        <_>
          <internalNodes>
            0 -1 29 8.4533877670764923e-03</internalNodes>
          <leafValues>
            2.1683265268802643e-01 -8.7352359294891357e-01</leafValues></_>
        <_>
          <internalNodes>
            0 -1 43 4.6426840126514435e-03</internalNodes>
          <leafValues>
            -9.7696667909622192e-01 2.1031779050827026e-01</leafValues></_>
        <_>
          <internalNodes>
            0 -1 16 2.2498342394828796e-01</internalNodes>
          <leafValues>
            -2.5409033894538879e-01 9.0675455331802368e-01</leafValues></_>
        <_>
          <internalNodes>
            0 -1 33 2.3125490546226501e-01</internalNodes>
          <leafValues>
            -3.1191724538803101e-01 5.3526479005813599e-01</leafValues></_>
        <_>
          <internalNodes>
            0 -1 19 4.7139905393123627e-02</internalNodes>
          <leafValues>
            2.2351333498954773e-01 -8.9806854724884033e-01</leafValues></_>
        <_>
          <internalNodes>
            0 -1 17 1.5032778494060040e-02</internalNodes>
          <leafValues>
            9.0380795300006866e-02 -9.0566450357437134e-01</leafValues></_>
        <_>
          <internalNodes>
            0 -1 5 1.1000366881489754e-02</internalNodes>
          <leafValues>
            -7.7905529737472534e-01 3.2108190655708313e-01</leafValues></_></weakClassifiers></_>
    <!-- stage 14 -->
    <_>
      <maxWeakCount>9</maxWeakCount>
      <stageThreshold>-8.9546573162078857e-01</stageThreshold>
      <weakClassifiers>
        <_>
          <internalNodes>
            0 -1 27 1.7166292667388916e-01</internalNodes>
          <leafValues>
            -3.4857141971588135e-01 7.7600002288818359e-01</leafValues></_>
        <_>
          <internalNodes>
            0 -1 31 5.2158455218886957e-05</internalNodes>
          <leafValues>
            3.6793804168701172e-01 -6.4719307422637939e-01</leafValues></_>
        <_>
          <internalNodes>
            0 -1 11 2.1208012104034424e-01</internalNodes>
          <leafValues>
            -2.5682249665260315e-01 7.7839708328247070e-01</leafValues></_>
        <_>
          <internalNodes>
            0 -1 38 1.0290961654391140e-04</internalNodes>
          <leafValues>
            4.2141982913017273e-01 -4.0707513689994812e-01</leafValues></_>
        <_>
          <internalNodes>
            0 -1 48 3.8067246350692585e-05</internalNodes>
          <leafValues>
            1.7567186057567596e-01 -8.4618538618087769e-01</leafValues></_>
        <_>
          <internalNodes>
            0 -1 41 1.0972598567605019e-02</internalNodes>
          <leafValues>
            -7.2546160221099854e-01 1.8477948009967804e-01</leafValues></_>
        <_>
          <internalNodes>
            0 -1 49 1.0336433351039886e-01</internalNodes>
          <leafValues>
            1.3066630065441132e-01 -9.8370599746704102e-01</leafValues></_>
        <_>
          <internalNodes>
            0 -1 13 1.1735057085752487e-01</internalNodes>
          <leafValues>
            -2.1190023422241211e-01 9.8224633932113647e-01</leafValues></_>
        <_>
          <internalNodes>
            0 -1 3 1.8042576266452670e-04</internalNodes>
          <leafValues>
            4.8497903347015381e-01 -3.8848629593849182e-01</leafValues></_></weakClassifiers></_>
    <!-- stage 15 -->
    <_>
      <maxWeakCount>7</maxWeakCount>
      <stageThreshold>-1.1901108026504517e+00</stageThreshold>
      <weakClassifiers>
        <_>
          <internalNodes>
            0 -1 15 1.3174903392791748e-01</internalNodes>
          <leafValues>
            -4.3525180220603943e-01 4.8730963468551636e-01</leafValues></_>
        <_>
          <internalNodes>
            0 -1 47 5.9120780788362026e-03</internalNodes>
          <leafValues>
            1.9352297484874725e-01 -9.1239619255065918e-01</leafValues></_>
        <_>
          <internalNodes>
            0 -1 7 3.3337471541017294e-04</internalNodes>
          <leafValues>
            2.5328779220581055e-01 -6.9810128211975098e-01</leafValues></_>
        <_>
          <internalNodes>
            0 -1 11 9.4998650252819061e-02</internalNodes>
          <leafValues>
            -3.5451418161392212e-01 6.6397953033447266e-01</leafValues></_>
        <_>
          <internalNodes>
            0 -1 5 8.9777465909719467e-03</internalNodes>
          <leafValues>
            -8.3385211229324341e-01 1.8262538313865662e-01</leafValues></_>
        <_>
          <internalNodes>
            0 -1 12 1.1882487684488297e-02</internalNodes>
          <leafValues>
            1.2738598883152008e-01 -9.6076613664627075e-01</leafValues></_>
        <_>
          <internalNodes>
            0 -1 13 1.0650964081287384e-01</internalNodes>
          <leafValues>
            -2.0577792823314667e-01 8.1397324800491333e-01</leafValues></_></weakClassifiers></_>
    <!-- stage 16 -->
    <_>
      <maxWeakCount>10</maxWeakCount>
      <stageThreshold>-1.3909922838211060e+00</stageThreshold>
      <weakClassifiers>
        <_>
          <internalNodes>
            0 -1 24 3.6014127545058727e-05</internalNodes>
          <leafValues>
            3.9075630903244019e-01 -4.9789029359817505e-01</leafValues></_>
        <_>
          <internalNodes>
            0 -1 43 1.3014186173677444e-02</internalNodes>
          <leafValues>
            -8.4186637401580811e-01 1.8784381449222565e-01</leafValues></_>
        <_>
          <internalNodes>
            0 -1 10 6.4422093331813812e-02</internalNodes>
          <leafValues>
            -4.4589957594871521e-01 4.1216295957565308e-01</leafValues></_>
        <_>
          <internalNodes>
            0 -1 39 5.8354117209091783e-04</internalNodes>
          <leafValues>
            1.7623832821846008e-01 -7.6383036375045776e-01</leafValues></_>
        <_>
          <internalNodes>
            0 -1 45 2.0406514406204224e-01</internalNodes>
          <leafValues>
            2.2894501686096191e-01 -7.1962696313858032e-01</leafValues></_>
        <_>
          <internalNodes>
            0 -1 7 2.0862731616944075e-04</internalNodes>
          <leafValues>
            2.0163790881633759e-01 -7.3597276210784912e-01</leafValues></_>
        <_>
          <internalNodes>
            0 -1 42 8.7951505556702614e-03</internalNodes>
          <leafValues>
            -4.6727830171585083e-01 3.9014369249343872e-01</leafValues></_>
        <_>
          <internalNodes>
            0 -1 9 1.6499622142873704e-04</internalNodes>
          <leafValues>
            -5.8244568109512329e-01 2.4262903630733490e-01</leafValues></_>
        <_>
          <internalNodes>
            0 -1 1 2.2737710969522595e-04</internalNodes>
          <leafValues>
            2.4707171320915222e-01 -6.9215184450149536e-01</leafValues></_>
        <_>
          <internalNodes>
            0 -1 32 1.2896782159805298e-01</internalNodes>
          <leafValues>
            -2.3457968235015869e-01 9.2821615934371948e-01</leafValues></_></weakClassifiers></_>
    <!-- stage 17 -->
    <_>
      <maxWeakCount>8</maxWeakCount>
      <stageThreshold>-9.2699313163757324e-01</stageThreshold>
      <weakClassifiers>
        <_>
          <internalNodes>
            0 -1 15 1.4821681380271912e-01</internalNodes>
          <leafValues>
            -4.1554054617881775e-01 5.4748600721359253e-01</leafValues></_>
        <_>
          <internalNodes>
            0 -1 7 2.3041447275318205e-04</internalNodes>
          <leafValues>
            2.2652012109756470e-01 -6.5027493238449097e-01</leafValues></_>
        <_>
          <internalNodes>
            0 -1 28 2.7577030658721924e-01</internalNodes>
          <leafValues>
            -2.3020358383655548e-01 8.6953455209732056e-01</leafValues></_>
        <_>
          <internalNodes>
            0 -1 22 6.1324620619416237e-03</internalNodes>
          <leafValues>
            -3.5393428802490234e-01 4.2423364520072937e-01</leafValues></_>
        <_>
          <internalNodes>
            0 -1 20 1.0445192456245422e-01</internalNodes>
          <leafValues>
            1.6861276328563690e-01 -9.4458949565887451e-01</leafValues></_>
        <_>
          <internalNodes>
            0 -1 9 1.6499622142873704e-04</internalNodes>
          <leafValues>
            -5.8613288402557373e-01 2.4969668686389923e-01</leafValues></_>
        <_>
          <internalNodes>
            0 -1 35 5.3459105401998386e-05</internalNodes>
          <leafValues>
            7.4268974363803864e-02 -9.8643589019775391e-01</leafValues></_>
        <_>
          <internalNodes>
            0 -1 43 1.6332885250449181e-02</internalNodes>
          <leafValues>
            -6.7572551965713501e-01 1.8941630423069000e-01</leafValues></_></weakClassifiers></_>
    <!-- stage 18 -->
    <_>
      <maxWeakCount>8</maxWeakCount>
      <stageThreshold>-8.0595833063125610e-01</stageThreshold>
      <weakClassifiers>
        <_>
          <internalNodes>
            0 -1 15 8.6395569145679474e-02</internalNodes>
          <leafValues>
            -5.5650317668914795e-01 4.3866944313049316e-01</leafValues></_>
        <_>
          <internalNodes>
            0 -1 6 2.4581822752952576e-01</internalNodes>
          <leafValues>
            1.7754173278808594e-01 -7.3669141530990601e-01</leafValues></_>
        <_>
          <internalNodes>
            0 -1 38 2.0988719188608229e-04</internalNodes>
          <leafValues>
            2.9895290732383728e-01 -4.4473487138748169e-01</leafValues></_>
        <_>
          <internalNodes>
            0 -1 25 9.5479711890220642e-02</internalNodes>
          <leafValues>
            1.8475842475891113e-01 -8.3005166053771973e-01</leafValues></_>
        <_>
          <internalNodes>
            0 -1 37 1.5855959057807922e-01</internalNodes>
          <leafValues>
            -2.2773823142051697e-01 7.7623540163040161e-01</leafValues></_>
        <_>
          <internalNodes>
            0 -1 32 1.2678551673889160e-01</internalNodes>
          <leafValues>
            -1.3173082470893860e-01 9.7927522659301758e-01</leafValues></_>
        <_>
          <internalNodes>
            0 -1 41 1.8282584846019745e-02</internalNodes>
          <leafValues>
            -6.8109267950057983e-01 2.5041621923446655e-01</leafValues></_>
        <_>
          <internalNodes>
            0 -1 26 1.1662039160728455e-01</internalNodes>
          <leafValues>
            1.2985354661941528e-01 -9.4437432289123535e-01</leafValues></_></weakClassifiers></_></stages>
  <features>
    <_>
      <rect>
        0 0 8 8 0</rect></_>
    <_>
      <rect>
        0 0 8 8 4</rect></_>
    <_>
      <rect>
        0 0 8 8 6</rect></_>
    <_>
      <rect>
        0 0 8 8 8</rect></_>
    <_>
      <rect>
        0 0 8 8 12</rect></_>
    <_>
      <rect>
        0 0 8 8 13</rect></_>
    <_>
      <rect>
        0 0 8 8 17</rect></_>
    <_>
      <rect>
        0 0 8 8 22</rect></_>
    <_>
      <rect>
        0 0 8 8 24</rect></_>
    <_>
      <rect>
        0 0 8 8 26</rect></_>
    <_>
      <rect>
        0 0 8 8 27</rect></_>
    <_>
      <rect>
        0 0 8 8 28</rect></_>
    <_>
      <rect>
        0 0 8 8 31</rect></_>
    <_>
      <rect>
        0 0 8 8 34</rect></_>
    <_>
      <rect>
        0 4 8 8 4</rect></_>
    <_>
      <rect>
        0 4 8 8 9</rect></_>
    <_>
      <rect>
        0 4 8 8 10</rect></_>
    <_>
      <rect>
        0 4 8 8 13</rect></_>
    <_>
      <rect>
        0 4 8 8 16</rect></_>
    <_>
      <rect>
        0 4 8 8 22</rect></_>
    <_>
      <rect>
        0 4 8 8 26</rect></_>
    <_>
      <rect>
        0 4 8 8 27</rect></_>
    <_>
      <rect>
        0 4 8 8 30</rect></_>
    <_>
      <rect>
        4 0 8 8 1</rect></_>
    <_>
      <rect>
        4 0 8 8 6</rect></_>
    <_>
      <rect>
        4 0 8 8 9</rect></_>
    <_>
      <rect>
        4 0 8 8 17</rect></_>
    <_>
      <rect>
        4 0 8 8 18</rect></_>
    <_>
      <rect>
        4 0 8 8 19</rect></_>
    <_>
      <rect>
        4 0 8 8 21</rect></_>
    <_>
      <rect>
        4 0 8 8 22</rect></_>
    <_>
      <rect>
        4 0 8 8 23</rect></_>
    <_>
      <rect>
        4 0 8 8 25</rect></_>
    <_>
      <rect>
        4 0 8 8 26</rect></_>
    <_>
      <rect>
        4 0 8 8 31</rect></_>
    <_>
      <rect>
        4 0 8 8 32</rect></_>
    <_>
      <rect>
        4 0 8 8 35</rect></_>
    <_>
      <rect>
        4 4 8 8 1</rect></_>
    <_>
      <rect>
        4 4 8 8 4</rect></_>
    <_>
      <rect>
        4 4 8 8 13</rect></_>
    <_>
      <rect>
        4 4 8 8 15</rect></_>
    <_>
      <rect>
        4 4 8 8 17</rect></_>
    <_>
      <rect>
        4 4 8 8 21</rect></_>
    <_>
      <rect>
        4 4 8 8 22</rect></_>
    <_>
      <rect>
        4 4 8 8 25</rect></_>
    <_>
      <rect>
        4 4 8 8 26</rect></_>
    <_>
      <rect>
        4 4 8 8 28</rect></_>
    <_>
      <rect>
        4 4 8 8 31</rect></_>
    <_>
      <rect>
        4 4 8 8 33</rect></_>
    <_>
      <rect>
        4 4 8 8 35</rect></_></features></cascade>
</opencv_storage>
