<?xml version="1.0"?>
<opencv_storage>
<stage8>
  <maxWeakCount>5</maxWeakCount>
  <stageThreshold>-6.0309982299804688e-01</stageThreshold>
  <weakClassifiers>
    <_>
      <internalNodes>
        0 -1 31 5.4216897115111351e-03</internalNodes>
      <leafValues>
        3.6808845400810242e-01 -8.9274448156356812e-01</leafValues></_>
    <_>
      <internalNodes>
        0 -1 45 1.5013678371906281e-01</internalNodes>
      <leafValues>
        -4.5905742049217224e-01 7.7607989311218262e-01</leafValues></_>
    <_>
      <internalNodes>
        0 -1 107 3.3882894058478996e-05</internalNodes>
      <leafValues>
        -9.5499318838119507e-01 2.8379359841346741e-01</leafValues></_>
    <_>
      <internalNodes>
        0 -1 130 1.2969207018613815e-02</internalNodes>
      <leafValues>
        -8.6529260873794556e-01 2.8299957513809204e-01</leafValues></_>
    <_>
      <internalNodes>
        0 -1 130 6.2714867293834686e-02</internalNodes>
      <leafValues>
        1.8190892040729523e-01 -9.2389529943466187e-01</leafValues></_></weakClassifiers></stage8>
</opencv_storage>
