<?xml version="1.0"?>
<opencv_storage>
<stage14>
  <maxWeakCount>9</maxWeakCount>
  <stageThreshold>-8.9546573162078857e-01</stageThreshold>
  <weakClassifiers>
    <_>
      <internalNodes>
        0 -1 90 1.7166292667388916e-01</internalNodes>
      <leafValues>
        -3.4857141971588135e-01 7.7600002288818359e-01</leafValues></_>
    <_>
      <internalNodes>
        0 -1 95 5.2158455218886957e-05</internalNodes>
      <leafValues>
        3.6793804168701172e-01 -6.4719307422637939e-01</leafValues></_>
    <_>
      <internalNodes>
        0 -1 28 2.1208012104034424e-01</internalNodes>
      <leafValues>
        -2.5682249665260315e-01 7.7839708328247070e-01</leafValues></_>
    <_>
      <internalNodes>
        0 -1 112 1.0290961654391140e-04</internalNodes>
      <leafValues>
        4.2141982913017273e-01 -4.0707513689994812e-01</leafValues></_>
    <_>
      <internalNodes>
        0 -1 141 3.8067246350692585e-05</internalNodes>
      <leafValues>
        1.7567186057567596e-01 -8.4618538618087769e-01</leafValues></_>
    <_>
      <internalNodes>
        0 -1 125 1.0972598567605019e-02</internalNodes>
      <leafValues>
        -7.2546160221099854e-01 1.8477948009967804e-01</leafValues></_>
    <_>
      <internalNodes>
        0 -1 143 1.0336433351039886e-01</internalNodes>
      <leafValues>
        1.3066630065441132e-01 -9.8370599746704102e-01</leafValues></_>
    <_>
      <internalNodes>
        0 -1 34 1.1735057085752487e-01</internalNodes>
      <leafValues>
        -2.1190023422241211e-01 9.8224633932113647e-01</leafValues></_>
    <_>
      <internalNodes>
        0 -1 8 1.8042576266452670e-04</internalNodes>
      <leafValues>
        4.8497903347015381e-01 -3.8848629593849182e-01</leafValues></_></weakClassifiers></stage14>
</opencv_storage>
