<?xml version="1.0"?>
<opencv_storage>
<stage15>
  <maxWeakCount>11</maxWeakCount>
  <stageThreshold>-9.6672850847244263e-01</stageThreshold>
  <weakClassifiers>
    <_>
      <internalNodes>
        0 -1 10 9.9974051117897034e-03</internalNodes>
      <leafValues>
        -6.3999998569488525e-01 2.1846154332160950e-01</leafValues></_>
    <_>
      <internalNodes>
        0 -1 13 3.0936500057578087e-02</internalNodes>
      <leafValues>
        -5.7536512613296509e-01 1.7323470115661621e-01</leafValues></_>
    <_>
      <internalNodes>
        0 -1 102 1.1977275833487511e-02</internalNodes>
      <leafValues>
        2.2817249596118927e-01 -6.5778177976608276e-01</leafValues></_>
    <_>
      <internalNodes>
        0 -1 135 2.5089536793529987e-03</internalNodes>
      <leafValues>
        -7.2773057222366333e-01 1.4277075231075287e-01</leafValues></_>
    <_>
      <internalNodes>
        0 -1 130 5.7209305465221405e-02</internalNodes>
      <leafValues>
        -4.1108301281929016e-01 2.8149300813674927e-01</leafValues></_>
    <_>
      <internalNodes>
        0 -1 5 5.7102679420495406e-05</internalNodes>
      <leafValues>
        4.0138670802116394e-01 -2.7946504950523376e-01</leafValues></_>
    <_>
      <internalNodes>
        0 -1 74 2.8578802943229675e-02</internalNodes>
      <leafValues>
        -3.8427767157554626e-01 2.7130106091499329e-01</leafValues></_>
    <_>
      <internalNodes>
        0 -1 36 3.0662870034575462e-02</internalNodes>
      <leafValues>
        9.2025198042392731e-02 -9.4602632522583008e-01</leafValues></_>
    <_>
      <internalNodes>
        0 -1 50 7.3457323014736176e-02</internalNodes>
      <leafValues>
        -1.7238160967826843e-01 7.9271638393402100e-01</leafValues></_>
    <_>
      <internalNodes>
        0 -1 89 9.4487294554710388e-03</internalNodes>
      <leafValues>
        -7.0474249124526978e-01 1.8634293973445892e-01</leafValues></_>
    <_>
      <internalNodes>
        0 -1 83 8.8083506852854043e-05</internalNodes>
      <leafValues>
        3.2234531641006470e-01 -3.6426773667335510e-01</leafValues></_></weakClassifiers></stage15>
</opencv_storage>
