<?xml version="1.0"?>
<opencv_storage>
<stage17>
  <maxWeakCount>11</maxWeakCount>
  <stageThreshold>-1.1215723752975464e+00</stageThreshold>
  <weakClassifiers>
    <_>
      <internalNodes>
        0 -1 28 5.6153260171413422e-02</internalNodes>
      <leafValues>
        -4.6354165673255920e-01 2.2614841163158417e-01</leafValues></_>
    <_>
      <internalNodes>
        0 -1 105 3.1741954386234283e-02</internalNodes>
      <leafValues>
        -2.8797402977943420e-01 4.4774147868156433e-01</leafValues></_>
    <_>
      <internalNodes>
        0 -1 139 3.1936403829604387e-03</internalNodes>
      <leafValues>
        2.5825208425521851e-01 -4.7043699026107788e-01</leafValues></_>
    <_>
      <internalNodes>
        0 -1 5 1.4638554304838181e-02</internalNodes>
      <leafValues>
        1.7455776035785675e-01 -7.5463598966598511e-01</leafValues></_>
    <_>
      <internalNodes>
        0 -1 50 7.9261995851993561e-03</internalNodes>
      <leafValues>
        -7.2749775648117065e-01 9.8120823502540588e-02</leafValues></_>
    <_>
      <internalNodes>
        0 -1 81 8.4096454083919525e-03</internalNodes>
      <leafValues>
        -3.7531828880310059e-01 2.7662375569343567e-01</leafValues></_>
    <_>
      <internalNodes>
        0 -1 83 5.6473418226232752e-05</internalNodes>
      <leafValues>
        2.9110032320022583e-01 -3.4664151072502136e-01</leafValues></_>
    <_>
      <internalNodes>
        0 -1 134 2.9147217050194740e-02</internalNodes>
      <leafValues>
        1.8701986968517303e-01 -6.3049405813217163e-01</leafValues></_>
    <_>
      <internalNodes>
        0 -1 87 4.9326419830322266e-02</internalNodes>
      <leafValues>
        1.0787235945463181e-01 -8.5069221258163452e-01</leafValues></_>
    <_>
      <internalNodes>
        0 -1 13 1.4718612655997276e-02</internalNodes>
      <leafValues>
        -9.9089354276657104e-01 7.8025624155998230e-02</leafValues></_>
    <_>
      <internalNodes>
        0 -1 121 1.9405256956815720e-02</internalNodes>
      <leafValues>
        1.6460780799388885e-01 -5.5897176265716553e-01</leafValues></_></weakClassifiers></stage17>
</opencv_storage>
