<?xml version="1.0"?>
<opencv_storage>
<stage7>
  <maxWeakCount>9</maxWeakCount>
  <stageThreshold>-1.1435720920562744e+00</stageThreshold>
  <weakClassifiers>
    <_>
      <internalNodes>
        0 -1 42 3.1569434213452041e-05</internalNodes>
      <leafValues>
        4.8800000548362732e-01 -4.0521737933158875e-01</leafValues></_>
    <_>
      <internalNodes>
        0 -1 62 1.0516690090298653e-02</internalNodes>
      <leafValues>
        -7.7995961904525757e-01 2.2663512825965881e-01</leafValues></_>
    <_>
      <internalNodes>
        0 -1 14 3.1075956299901009e-02</internalNodes>
      <leafValues>
        -3.2156461477279663e-01 6.0194677114486694e-01</leafValues></_>
    <_>
      <internalNodes>
        0 -1 143 3.5167783498764038e-02</internalNodes>
      <leafValues>
        2.8442367911338806e-01 -8.0478584766387939e-01</leafValues></_>
    <_>
      <internalNodes>
        0 -1 30 1.8092865124344826e-02</internalNodes>
      <leafValues>
        -7.6347672939300537e-01 1.2982353568077087e-01</leafValues></_>
    <_>
      <internalNodes>
        0 -1 120 1.1564984917640686e-02</internalNodes>
      <leafValues>
        3.4842655062675476e-01 -4.9159434437751770e-01</leafValues></_>
    <_>
      <internalNodes>
        0 -1 91 7.5330592691898346e-02</internalNodes>
      <leafValues>
        -3.5278838872909546e-01 4.4390153884887695e-01</leafValues></_>
    <_>
      <internalNodes>
        0 -1 111 5.2158974111080170e-02</internalNodes>
      <leafValues>
        -2.4268642067909241e-01 5.9101003408432007e-01</leafValues></_>
    <_>
      <internalNodes>
        0 -1 52 8.1034405156970024e-03</internalNodes>
      <leafValues>
        -6.0135859251022339e-01 2.3930151760578156e-01</leafValues></_></weakClassifiers></stage7>
</opencv_storage>
