<?xml version="1.0"?>
<opencv_storage>
<stage11>
  <maxWeakCount>10</maxWeakCount>
  <stageThreshold>-8.3623719215393066e-01</stageThreshold>
  <weakClassifiers>
    <_>
      <internalNodes>
        0 -1 82 6.7826083977706730e-05</internalNodes>
      <leafValues>
        3.4597155451774597e-01 -3.7121212482452393e-01</leafValues></_>
    <_>
      <internalNodes>
        0 -1 46 8.6631096899509430e-02</internalNodes>
      <leafValues>
        -2.9141804575920105e-01 5.0621420145034790e-01</leafValues></_>
    <_>
      <internalNodes>
        0 -1 93 3.3750422298908234e-02</internalNodes>
      <leafValues>
        -4.6397024393081665e-01 2.4577490985393524e-01</leafValues></_>
    <_>
      <internalNodes>
        0 -1 57 4.1986852884292603e-02</internalNodes>
      <leafValues>
        2.0974248647689819e-01 -7.0509332418441772e-01</leafValues></_>
    <_>
      <internalNodes>
        0 -1 13 2.6989508420228958e-02</internalNodes>
      <leafValues>
        -5.6180727481842041e-01 1.9766025245189667e-01</leafValues></_>
    <_>
      <internalNodes>
        0 -1 6 2.6321311452193186e-05</internalNodes>
      <leafValues>
        3.2683086395263672e-01 -3.5691818594932556e-01</leafValues></_>
    <_>
      <internalNodes>
        0 -1 121 1.8023991957306862e-02</internalNodes>
      <leafValues>
        3.2170116901397705e-01 -4.1802683472633362e-01</leafValues></_>
    <_>
      <internalNodes>
        0 -1 31 2.6507694274187088e-02</internalNodes>
      <leafValues>
        -4.6851637959480286e-01 2.3970784246921539e-01</leafValues></_>
    <_>
      <internalNodes>
        0 -1 92 9.5700971782207489e-02</internalNodes>
      <leafValues>
        -2.5833383202552795e-01 5.8262145519256592e-01</leafValues></_>
    <_>
      <internalNodes>
        0 -1 8 3.0371509492397308e-03</internalNodes>
      <leafValues>
        -6.5061205625534058e-01 2.4015687406063080e-01</leafValues></_></weakClassifiers></stage11>
</opencv_storage>
