<?xml version="1.0"?>
<opencv_storage>
<cascade>
  <stageType>BOOST</stageType>
  <featureType>HAAR</featureType>
  <height>20</height>
  <width>20</width>
  <stageParams>
    <boostType>GAB</boostType>
    <minHitRate>9.9500000476837158e-01</minHitRate>
    <maxFalseAlarm>5.0000000000000000e-01</maxFalseAlarm>
    <weightTrimRate>9.4999999999999996e-01</weightTrimRate>
    <maxDepth>1</maxDepth>
    <maxWeakCount>100</maxWeakCount></stageParams>
  <featureParams>
    <maxCatCount>0</maxCatCount>
    <featSize>1</featSize>
    <mode>BASIC</mode></featureParams>
  <stageNum>16</stageNum>
  <stages>
    <!-- stage 0 -->
    <_>
      <maxWeakCount>3</maxWeakCount>
      <stageThreshold>-1.2329040765762329e+00</stageThreshold>
      <weakClassifiers>
        <_>
          <internalNodes>
            0 -1 25 6.8801390007138252e-03</internalNodes>
          <leafValues>
            -9.0886700153350830e-01 8.8584476709365845e-01</leafValues></_>
        <_>
          <internalNodes>
            0 -1 19 1.2181835249066353e-02</internalNodes>
          <leafValues>
            -8.3605384826660156e-01 6.7724603414535522e-01</leafValues></_>
        <_>
          <internalNodes>
            0 -1 40 1.6568357124924660e-02</internalNodes>
          <leafValues>
            -9.0847879648208618e-01 5.1201671361923218e-01</leafValues></_></weakClassifiers></_>
    <!-- stage 1 -->
    <_>
      <maxWeakCount>4</maxWeakCount>
      <stageThreshold>-9.6969509124755859e-01</stageThreshold>
      <weakClassifiers>
        <_>
          <internalNodes>
            0 -1 26 -1.1413613334298134e-02</internalNodes>
          <leafValues>
            5.2123552560806274e-01 -8.4699451923370361e-01</leafValues></_>
        <_>
          <internalNodes>
            0 -1 5 -2.7476904913783073e-02</internalNodes>
          <leafValues>
            5.1002073287963867e-01 -8.4688365459442139e-01</leafValues></_>
        <_>
          <internalNodes>
            0 -1 42 -8.3096092566847801e-03</internalNodes>
          <leafValues>
            3.5728350281715393e-01 -8.7293827533721924e-01</leafValues></_>
        <_>
          <internalNodes>
            0 -1 47 4.5512751967180520e-05</internalNodes>
          <leafValues>
            3.6689957976341248e-01 -1.</leafValues></_></weakClassifiers></_>
    <!-- stage 2 -->
    <_>
      <maxWeakCount>2</maxWeakCount>
      <stageThreshold>-4.3575027585029602e-01</stageThreshold>
      <weakClassifiers>
        <_>
          <internalNodes>
            0 -1 34 4.8092808574438095e-03</internalNodes>
          <leafValues>
            -8.5481852293014526e-01 7.3835921287536621e-01</leafValues></_>
        <_>
          <internalNodes>
            0 -1 47 -2.1823030692758039e-05</internalNodes>
          <leafValues>
            -9.7244668006896973e-01 4.1906824707984924e-01</leafValues></_></weakClassifiers></_>
    <!-- stage 3 -->
    <_>
      <maxWeakCount>2</maxWeakCount>
      <stageThreshold>-5.9784042835235596e-01</stageThreshold>
      <weakClassifiers>
        <_>
          <internalNodes>
            0 -1 12 1.2578251957893372e-01</internalNodes>
          <leafValues>
            -9.0365445613861084e-01 2.9938271641731262e-01</leafValues></_>
        <_>
          <internalNodes>
            0 -1 48 4.2929066694341600e-05</internalNodes>
          <leafValues>
            3.0581405758857727e-01 -1.</leafValues></_></weakClassifiers></_>
    <!-- stage 4 -->
    <_>
      <maxWeakCount>2</maxWeakCount>
      <stageThreshold>-3.5040435194969177e-01</stageThreshold>
      <weakClassifiers>
        <_>
          <internalNodes>
            0 -1 13 1.2251907587051392e-01</internalNodes>
          <leafValues>
            -9.3413174152374268e-01 4.7079038619995117e-01</leafValues></_>
        <_>
          <internalNodes>
            0 -1 31 5.0262939184904099e-03</internalNodes>
          <leafValues>
            -7.5770437717437744e-01 5.8372741937637329e-01</leafValues></_></weakClassifiers></_>
    <!-- stage 5 -->
    <_>
      <maxWeakCount>2</maxWeakCount>
      <stageThreshold>-3.4906119108200073e-01</stageThreshold>
      <weakClassifiers>
        <_>
          <internalNodes>
            0 -1 21 8.7145594879984856e-03</internalNodes>
          <leafValues>
            -7.3670887947082520e-01 5.0434780120849609e-01</leafValues></_>
        <_>
          <internalNodes>
            0 -1 48 -8.0570796853862703e-05</internalNodes>
          <leafValues>
            -1. 3.8764765858650208e-01</leafValues></_></weakClassifiers></_>
    <!-- stage 6 -->
    <_>
      <maxWeakCount>3</maxWeakCount>
      <stageThreshold>-1.0835957527160645e+00</stageThreshold>
      <weakClassifiers>
        <_>
          <internalNodes>
            0 -1 9 -3.8056909106671810e-03</internalNodes>
          <leafValues>
            4.0863788127899170e-01 -9.1975307464599609e-01</leafValues></_>
        <_>
          <internalNodes>
            0 -1 34 5.3199846297502518e-03</internalNodes>
          <leafValues>
            -7.9288017749786377e-01 5.2080035209655762e-01</leafValues></_>
        <_>
          <internalNodes>
            0 -1 46 9.0707316994667053e-03</internalNodes>
          <leafValues>
            -6.4614760875701904e-01 6.2903755903244019e-01</leafValues></_></weakClassifiers></_>
    <!-- stage 7 -->
    <_>
      <maxWeakCount>2</maxWeakCount>
      <stageThreshold>-4.7145494818687439e-01</stageThreshold>
      <weakClassifiers>
        <_>
          <internalNodes>
            0 -1 21 8.7018683552742004e-03</internalNodes>
          <leafValues>
            -7.3570519685745239e-01 4.9460044503211975e-01</leafValues></_>
        <_>
          <internalNodes>
            0 -1 4 3.9980179280973971e-05</internalNodes>
          <leafValues>
            3.5475862026214600e-01 -9.6605539321899414e-01</leafValues></_></weakClassifiers></_>
    <!-- stage 8 -->
    <_>
      <maxWeakCount>4</maxWeakCount>
      <stageThreshold>-9.0761476755142212e-01</stageThreshold>
      <weakClassifiers>
        <_>
          <internalNodes>
            0 -1 18 -5.4012606851756573e-03</internalNodes>
          <leafValues>
            3.9417475461959839e-01 -7.5238096714019775e-01</leafValues></_>
        <_>
          <internalNodes>
            0 -1 2 9.1349342837929726e-03</internalNodes>
          <leafValues>
            -7.7644020318984985e-01 4.0239521861076355e-01</leafValues></_>
        <_>
          <internalNodes>
            0 -1 37 3.9641982875764370e-03</internalNodes>
          <leafValues>
            -7.9954642057418823e-01 3.4952425956726074e-01</leafValues></_>
        <_>
          <internalNodes>
            0 -1 7 3.6814227700233459e-02</internalNodes>
          <leafValues>
            -8.7487357854843140e-01 3.9353093504905701e-01</leafValues></_></weakClassifiers></_>
    <!-- stage 9 -->
    <_>
      <maxWeakCount>3</maxWeakCount>
      <stageThreshold>-3.0847147107124329e-01</stageThreshold>
      <weakClassifiers>
        <_>
          <internalNodes>
            0 -1 24 8.7955212220549583e-03</internalNodes>
          <leafValues>
            -8.6046510934829712e-01 2.5925925374031067e-01</leafValues></_>
        <_>
          <internalNodes>
            0 -1 44 -8.1761814653873444e-03</internalNodes>
          <leafValues>
            3.1102645397186279e-01 -8.3641165494918823e-01</leafValues></_>
        <_>
          <internalNodes>
            0 -1 4 -6.6062792029697448e-05</internalNodes>
          <leafValues>
            -1. 2.6868093013763428e-01</leafValues></_></weakClassifiers></_>
    <!-- stage 10 -->
    <_>
      <maxWeakCount>4</maxWeakCount>
      <stageThreshold>-7.1675825119018555e-01</stageThreshold>
      <weakClassifiers>
        <_>
          <internalNodes>
            0 -1 6 -1.7342559993267059e-02</internalNodes>
          <leafValues>
            4.1417911648750305e-01 -8.0112046003341675e-01</leafValues></_>
        <_>
          <internalNodes>
            0 -1 33 -9.2309378087520599e-03</internalNodes>
          <leafValues>
            5.8423566818237305e-01 -6.2451261281967163e-01</leafValues></_>
        <_>
          <internalNodes>
            0 -1 30 1.7219716028193943e-05</internalNodes>
          <leafValues>
            3.5822659730911255e-01 -1.</leafValues></_>
        <_>
          <internalNodes>
            0 -1 43 1.7958678654395044e-05</internalNodes>
          <leafValues>
            -7.6733386516571045e-01 3.5064822435379028e-01</leafValues></_></weakClassifiers></_>
    <!-- stage 11 -->
    <_>
      <maxWeakCount>4</maxWeakCount>
      <stageThreshold>-8.6669927835464478e-01</stageThreshold>
      <weakClassifiers>
        <_>
          <internalNodes>
            0 -1 32 4.5498879626393318e-03</internalNodes>
          <leafValues>
            -7.9878050088882446e-01 2.9292929172515869e-01</leafValues></_>
        <_>
          <internalNodes>
            0 -1 8 7.5107244774699211e-03</internalNodes>
          <leafValues>
            -7.6049345731735229e-01 4.4050231575965881e-01</leafValues></_>
        <_>
          <internalNodes>
            0 -1 0 4.4941360101802275e-05</internalNodes>
          <leafValues>
            3.2159355282783508e-01 -9.0761625766754150e-01</leafValues></_>
        <_>
          <internalNodes>
            0 -1 14 -1.9257431849837303e-02</internalNodes>
          <leafValues>
            3.9919516444206238e-01 -6.7612582445144653e-01</leafValues></_></weakClassifiers></_>
    <!-- stage 12 -->
    <_>
      <maxWeakCount>5</maxWeakCount>
      <stageThreshold>-9.0000498294830322e-01</stageThreshold>
      <weakClassifiers>
        <_>
          <internalNodes>
            0 -1 17 -1.2328623561188579e-03</internalNodes>
          <leafValues>
            2.3361344635486603e-01 -7.4656486511230469e-01</leafValues></_>
        <_>
          <internalNodes>
            0 -1 28 5.5475255066994578e-05</internalNodes>
          <leafValues>
            2.4137458205223083e-01 -8.6473089456558228e-01</leafValues></_>
        <_>
          <internalNodes>
            0 -1 23 -3.5313614644110203e-03</internalNodes>
          <leafValues>
            2.8374195098876953e-01 -7.3055529594421387e-01</leafValues></_>
        <_>
          <internalNodes>
            0 -1 45 4.1239829442929476e-05</internalNodes>
          <leafValues>
            -8.9176797866821289e-01 3.0724483728408813e-01</leafValues></_>
        <_>
          <internalNodes>
            0 -1 38 1.6976398910628632e-05</internalNodes>
          <leafValues>
            2.4733024835586548e-01 -8.9169007539749146e-01</leafValues></_></weakClassifiers></_>
    <!-- stage 13 -->
    <_>
      <maxWeakCount>4</maxWeakCount>
      <stageThreshold>-8.3756661415100098e-01</stageThreshold>
      <weakClassifiers>
        <_>
          <internalNodes>
            0 -1 15 -6.4793592318892479e-03</internalNodes>
          <leafValues>
            4.1428571939468384e-01 -6.3132530450820923e-01</leafValues></_>
        <_>
          <internalNodes>
            0 -1 35 3.7654144689440727e-03</internalNodes>
          <leafValues>
            -7.8115797042846680e-01 3.6638304591178894e-01</leafValues></_>
        <_>
          <internalNodes>
            0 -1 3 -2.7441091835498810e-02</internalNodes>
          <leafValues>
            2.9928123950958252e-01 -8.2445245981216431e-01</leafValues></_>
        <_>
          <internalNodes>
            0 -1 1 -1.5518553482252173e-05</internalNodes>
          <leafValues>
            -1. 2.7563539147377014e-01</leafValues></_></weakClassifiers></_>
    <!-- stage 14 -->
    <_>
      <maxWeakCount>5</maxWeakCount>
      <stageThreshold>-1.1147369146347046e+00</stageThreshold>
      <weakClassifiers>
        <_>
          <internalNodes>
            0 -1 11 -3.5569949541240931e-03</internalNodes>
          <leafValues>
            1.5568862855434418e-01 -7.8006875514984131e-01</leafValues></_>
        <_>
          <internalNodes>
            0 -1 16 -2.3088632151484489e-03</internalNodes>
          <leafValues>
            -8.2611280679702759e-01 2.8119495511054993e-01</leafValues></_>
        <_>
          <internalNodes>
            0 -1 29 5.7912115007638931e-03</internalNodes>
          <leafValues>
            -4.5772016048431396e-01 5.6943345069885254e-01</leafValues></_>
        <_>
          <internalNodes>
            0 -1 22 -6.3491873443126678e-03</internalNodes>
          <leafValues>
            5.7578408718109131e-01 -4.6114394068717957e-01</leafValues></_>
        <_>
          <internalNodes>
            0 -1 27 -1.3892752576794010e-05</internalNodes>
          <leafValues>
            -9.9724364280700684e-01 3.0300098657608032e-01</leafValues></_></weakClassifiers></_>
    <!-- stage 15 -->
    <_>
      <maxWeakCount>5</maxWeakCount>
      <stageThreshold>-7.6280748844146729e-01</stageThreshold>
      <weakClassifiers>
        <_>
          <internalNodes>
            0 -1 20 -5.8589028194546700e-03</internalNodes>
          <leafValues>
            3.5055351257324219e-01 -7.6271188259124756e-01</leafValues></_>
        <_>
          <internalNodes>
            0 -1 41 4.4732242822647095e-03</internalNodes>
          <leafValues>
            -6.3319593667984009e-01 3.7683683633804321e-01</leafValues></_>
        <_>
          <internalNodes>
            0 -1 39 6.3336575403809547e-03</internalNodes>
          <leafValues>
            -8.4696602821350098e-01 2.9769480228424072e-01</leafValues></_>
        <_>
          <internalNodes>
            0 -1 36 1.3879979960620403e-03</internalNodes>
          <leafValues>
            -8.6031579971313477e-01 3.4314039349555969e-01</leafValues></_>
        <_>
          <internalNodes>
            0 -1 10 5.7152137160301208e-03</internalNodes>
          <leafValues>
            -9.4605654478073120e-01 2.1708397567272186e-01</leafValues></_></weakClassifiers></_></stages>
  <features>
    <_>
      <rects>
        <_>
          0 0 1 20 -1.</_>
        <_>
          0 10 1 10 2.</_></rects>
      <tilted>0</tilted></_>
    <_>
      <rects>
        <_>
          0 0 6 1 -1.</_>
        <_>
          3 0 3 1 2.</_></rects>
      <tilted>0</tilted></_>
    <_>
      <rects>
        <_>
          0 1 10 12 -1.</_>
        <_>
          0 1 5 6 2.</_>
        <_>
          5 7 5 6 2.</_></rects>
      <tilted>0</tilted></_>
    <_>
      <rects>
        <_>
          0 3 6 17 -1.</_>
        <_>
          3 3 3 17 2.</_></rects>
      <tilted>0</tilted></_>
    <_>
      <rects>
        <_>
          0 4 1 16 -1.</_>
        <_>
          0 12 1 8 2.</_></rects>
      <tilted>0</tilted></_>
    <_>
      <rects>
        <_>
          0 4 6 11 -1.</_>
        <_>
          3 4 3 11 2.</_></rects>
      <tilted>0</tilted></_>
    <_>
      <rects>
        <_>
          0 5 4 10 -1.</_>
        <_>
          2 5 2 10 2.</_></rects>
      <tilted>0</tilted></_>
    <_>
      <rects>
        <_>
          0 5 20 10 -1.</_>
        <_>
          0 10 20 5 2.</_></rects>
      <tilted>0</tilted></_>
    <_>
      <rects>
        <_>
          0 8 4 12 -1.</_>
        <_>
          0 8 2 6 2.</_>
        <_>
          2 14 2 6 2.</_></rects>
      <tilted>0</tilted></_>
    <_>
      <rects>
        <_>
          0 13 10 7 -1.</_>
        <_>
          5 13 5 7 2.</_></rects>
      <tilted>0</tilted></_>
    <_>
      <rects>
        <_>
          1 7 8 10 -1.</_>
        <_>
          1 12 8 5 2.</_></rects>
      <tilted>0</tilted></_>
    <_>
      <rects>
        <_>
          1 14 8 5 -1.</_>
        <_>
          5 14 4 5 2.</_></rects>
      <tilted>0</tilted></_>
    <_>
      <rects>
        <_>
          2 4 15 16 -1.</_>
        <_>
          2 12 15 8 2.</_></rects>
      <tilted>0</tilted></_>
    <_>
      <rects>
        <_>
          2 4 18 16 -1.</_>
        <_>
          2 12 18 8 2.</_></rects>
      <tilted>0</tilted></_>
    <_>
      <rects>
        <_>
          3 0 8 6 -1.</_>
        <_>
          3 3 8 3 2.</_></rects>
      <tilted>0</tilted></_>
    <_>
      <rects>
        <_>
          4 9 2 6 -1.</_>
        <_>
          4 9 1 3 2.</_>
        <_>
          5 12 1 3 2.</_></rects>
      <tilted>0</tilted></_>
    <_>
      <rects>
        <_>
          5 2 6 12 -1.</_>
        <_>
          5 8 6 6 2.</_></rects>
      <tilted>0</tilted></_>
    <_>
      <rects>
        <_>
          6 9 2 2 -1.</_>
        <_>
          7 9 1 2 2.</_></rects>
      <tilted>0</tilted></_>
    <_>
      <rects>
        <_>
          6 9 3 2 -1.</_>
        <_>
          7 9 1 2 3.</_></rects>
      <tilted>0</tilted></_>
    <_>
      <rects>
        <_>
          6 9 6 2 -1.</_>
        <_>
          8 9 2 2 3.</_></rects>
      <tilted>0</tilted></_>
    <_>
      <rects>
        <_>
          7 7 1 6 -1.</_>
        <_>
          7 9 1 2 3.</_></rects>
      <tilted>0</tilted></_>
    <_>
      <rects>
        <_>
          7 7 4 3 -1.</_>
        <_>
          7 8 4 1 3.</_></rects>
      <tilted>0</tilted></_>
    <_>
      <rects>
        <_>
          7 8 4 2 -1.</_>
        <_>
          7 9 4 1 2.</_></rects>
      <tilted>0</tilted></_>
    <_>
      <rects>
        <_>
          8 1 12 14 -1.</_>
        <_>
          8 1 6 7 2.</_>
        <_>
          14 8 6 7 2.</_></rects>
      <tilted>0</tilted></_>
    <_>
      <rects>
        <_>
          8 8 3 3 -1.</_>
        <_>
          9 8 1 3 3.</_></rects>
      <tilted>0</tilted></_>
    <_>
      <rects>
        <_>
          8 9 3 2 -1.</_>
        <_>
          9 9 1 2 3.</_></rects>
      <tilted>0</tilted></_>
    <_>
      <rects>
        <_>
          8 10 6 1 -1.</_>
        <_>
          10 10 2 1 3.</_></rects>
      <tilted>0</tilted></_>
    <_>
      <rects>
        <_>
          9 8 1 2 -1.</_>
        <_>
          9 9 1 1 2.</_></rects>
      <tilted>0</tilted></_>
    <_>
      <rects>
        <_>
          9 8 1 3 -1.</_>
        <_>
          9 9 1 1 3.</_></rects>
      <tilted>0</tilted></_>
    <_>
      <rects>
        <_>
          9 8 2 3 -1.</_>
        <_>
          9 9 2 1 3.</_></rects>
      <tilted>0</tilted></_>
    <_>
      <rects>
        <_>
          9 9 1 4 -1.</_>
        <_>
          9 11 1 2 2.</_></rects>
      <tilted>0</tilted></_>
    <_>
      <rects>
        <_>
          9 10 2 2 -1.</_>
        <_>
          9 10 1 1 2.</_>
        <_>
          10 11 1 1 2.</_></rects>
      <tilted>0</tilted></_>
    <_>
      <rects>
        <_>
          9 10 3 2 -1.</_>
        <_>
          9 11 3 1 2.</_></rects>
      <tilted>0</tilted></_>
    <_>
      <rects>
        <_>
          10 9 1 3 -1.</_>
        <_>
          10 10 1 1 3.</_></rects>
      <tilted>0</tilted></_>
    <_>
      <rects>
        <_>
          10 10 1 3 -1.</_>
        <_>
          10 11 1 1 3.</_></rects>
      <tilted>0</tilted></_>
    <_>
      <rects>
        <_>
          10 10 4 1 -1.</_>
        <_>
          12 10 2 1 2.</_></rects>
      <tilted>0</tilted></_>
    <_>
      <rects>
        <_>
          10 10 4 2 -1.</_>
        <_>
          10 11 4 1 2.</_></rects>
      <tilted>0</tilted></_>
    <_>
      <rects>
        <_>
          11 13 8 6 -1.</_>
        <_>
          15 13 4 6 2.</_></rects>
      <tilted>0</tilted></_>
    <_>
      <rects>
        <_>
          12 0 8 1 -1.</_>
        <_>
          16 0 4 1 2.</_></rects>
      <tilted>0</tilted></_>
    <_>
      <rects>
        <_>
          12 1 8 6 -1.</_>
        <_>
          16 1 4 6 2.</_></rects>
      <tilted>0</tilted></_>
    <_>
      <rects>
        <_>
          12 4 8 6 -1.</_>
        <_>
          16 4 4 6 2.</_></rects>
      <tilted>0</tilted></_>
    <_>
      <rects>
        <_>
          12 12 5 8 -1.</_>
        <_>
          12 16 5 4 2.</_></rects>
      <tilted>0</tilted></_>
    <_>
      <rects>
        <_>
          13 0 5 8 -1.</_>
        <_>
          13 4 5 4 2.</_></rects>
      <tilted>0</tilted></_>
    <_>
      <rects>
        <_>
          13 6 1 9 -1.</_>
        <_>
          13 9 1 3 3.</_></rects>
      <tilted>0</tilted></_>
    <_>
      <rects>
        <_>
          14 0 6 10 -1.</_>
        <_>
          14 5 6 5 2.</_></rects>
      <tilted>0</tilted></_>
    <_>
      <rects>
        <_>
          14 10 6 9 -1.</_>
        <_>
          17 10 3 9 2.</_></rects>
      <tilted>0</tilted></_>
    <_>
      <rects>
        <_>
          16 7 4 9 -1.</_>
        <_>
          18 7 2 9 2.</_></rects>
      <tilted>0</tilted></_>
    <_>
      <rects>
        <_>
          17 14 2 6 -1.</_>
        <_>
          17 16 2 2 3.</_></rects>
      <tilted>0</tilted></_>
    <_>
      <rects>
        <_>
          19 4 1 16 -1.</_>
        <_>
          19 12 1 8 2.</_></rects>
      <tilted>0</tilted></_></features></cascade>
</opencv_storage>
