<?xml version="1.0"?>
<opencv_storage>
<cascade>
  <stageType>BOOST</stageType>
  <featureType>HAAR</featureType>
  <height>20</height>
  <width>20</width>
  <stageParams>
    <boostType>GAB</boostType>
    <minHitRate>9.9500000476837158e-01</minHitRate>
    <maxFalseAlarm>5.0000000000000000e-01</maxFalseAlarm>
    <weightTrimRate>9.4999999999999996e-01</weightTrimRate>
    <maxDepth>1</maxDepth>
    <maxWeakCount>100</maxWeakCount></stageParams>
  <featureParams>
    <maxCatCount>0</maxCatCount>
    <featSize>1</featSize>
    <mode>BASIC</mode></featureParams>
  <stageNum>17</stageNum>
  <stages>
    <!-- stage 0 -->
    <_>
      <maxWeakCount>2</maxWeakCount>
      <stageThreshold>-1.1680099368095398e-01</stageThreshold>
      <weakClassifiers>
        <_>
          <internalNodes>
            0 -1 25 -1.2252305448055267e-01</internalNodes>
          <leafValues>
            9.5623630285263062e-01 -9.6891194581985474e-01</leafValues></_>
        <_>
          <internalNodes>
            0 -1 22 1.3503949344158173e-01</internalNodes>
          <leafValues>
            -9.7287642955780029e-01 8.5211092233657837e-01</leafValues></_></weakClassifiers></_>
    <!-- stage 1 -->
    <_>
      <maxWeakCount>2</maxWeakCount>
      <stageThreshold>-7.7510572969913483e-02</stageThreshold>
      <weakClassifiers>
        <_>
          <internalNodes>
            0 -1 42 1.0261850059032440e-01</internalNodes>
          <leafValues>
            -8.2178217172622681e-01 9.2857140302658081e-01</leafValues></_>
        <_>
          <internalNodes>
            0 -1 34 2.2224597632884979e-02</internalNodes>
          <leafValues>
            -9.4906091690063477e-01 7.4427157640457153e-01</leafValues></_></weakClassifiers></_>
    <!-- stage 2 -->
    <_>
      <maxWeakCount>2</maxWeakCount>
      <stageThreshold>-4.3540358543395996e-02</stageThreshold>
      <weakClassifiers>
        <_>
          <internalNodes>
            0 -1 27 -3.0763681977987289e-02</internalNodes>
          <leafValues>
            8.8583511114120483e-01 -9.5480227470397949e-01</leafValues></_>
        <_>
          <internalNodes>
            0 -1 15 -3.9314780384302139e-02</internalNodes>
          <leafValues>
            9.1126191616058350e-01 -7.4953973293304443e-01</leafValues></_></weakClassifiers></_>
    <!-- stage 3 -->
    <_>
      <maxWeakCount>2</maxWeakCount>
      <stageThreshold>7.3763406835496426e-03</stageThreshold>
      <weakClassifiers>
        <_>
          <internalNodes>
            0 -1 44 8.1141918897628784e-02</internalNodes>
          <leafValues>
            -7.7297300100326538e-01 8.4516131877899170e-01</leafValues></_>
        <_>
          <internalNodes>
            0 -1 21 -1.1937467008829117e-01</internalNodes>
          <leafValues>
            7.8034931421279907e-01 -7.9161655902862549e-01</leafValues></_></weakClassifiers></_>
    <!-- stage 4 -->
    <_>
      <maxWeakCount>3</maxWeakCount>
      <stageThreshold>4.4372516870498657e-01</stageThreshold>
      <weakClassifiers>
        <_>
          <internalNodes>
            0 -1 14 -7.1566775441169739e-02</internalNodes>
          <leafValues>
            8.5313177108764648e-01 -7.7540105581283569e-01</leafValues></_>
        <_>
          <internalNodes>
            0 -1 31 -3.2625871244817972e-04</internalNodes>
          <leafValues>
            -1. 6.2490689754486084e-01</leafValues></_>
        <_>
          <internalNodes>
            0 -1 31 3.6856767837889493e-04</internalNodes>
          <leafValues>
            5.9421938657760620e-01 -9.9507868289947510e-01</leafValues></_></weakClassifiers></_>
    <!-- stage 5 -->
    <_>
      <maxWeakCount>1</maxWeakCount>
      <stageThreshold>7.1701723337173462e-01</stageThreshold>
      <weakClassifiers>
        <_>
          <internalNodes>
            0 -1 4 5.5037562560755759e-05</internalNodes>
          <leafValues>
            7.1701723337173462e-01 -9.8425197601318359e-01</leafValues></_></weakClassifiers></_>
    <!-- stage 6 -->
    <_>
      <maxWeakCount>1</maxWeakCount>
      <stageThreshold>8.4049081802368164e-01</stageThreshold>
      <weakClassifiers>
        <_>
          <internalNodes>
            0 -1 4 -1.7326037777820602e-05</internalNodes>
          <leafValues>
            -1. 8.4049081802368164e-01</leafValues></_></weakClassifiers></_>
    <!-- stage 7 -->
    <_>
      <maxWeakCount>4</maxWeakCount>
      <stageThreshold>-8.0505825579166412e-02</stageThreshold>
      <weakClassifiers>
        <_>
          <internalNodes>
            0 -1 24 -2.3635972291231155e-02</internalNodes>
          <leafValues>
            7.3861384391784668e-01 -8.4827584028244019e-01</leafValues></_>
        <_>
          <internalNodes>
            0 -1 26 -3.2095146179199219e-01</internalNodes>
          <leafValues>
            6.2765198945999146e-01 -7.6359653472900391e-01</leafValues></_>
        <_>
          <internalNodes>
            0 -1 43 9.5538049936294556e-02</internalNodes>
          <leafValues>
            -5.4771739244461060e-01 8.0016249418258667e-01</leafValues></_>
        <_>
          <internalNodes>
            0 -1 39 3.0101919546723366e-03</internalNodes>
          <leafValues>
            -6.1804997920989990e-01 6.8783545494079590e-01</leafValues></_></weakClassifiers></_>
    <!-- stage 8 -->
    <_>
      <maxWeakCount>4</maxWeakCount>
      <stageThreshold>-4.9731829762458801e-01</stageThreshold>
      <weakClassifiers>
        <_>
          <internalNodes>
            0 -1 9 6.8079158663749695e-03</internalNodes>
          <leafValues>
            -8.3006536960601807e-01 7.5855129957199097e-01</leafValues></_>
        <_>
          <internalNodes>
            0 -1 48 1.4420756087929476e-05</internalNodes>
          <leafValues>
            5.0399023294448853e-01 -9.6722400188446045e-01</leafValues></_>
        <_>
          <internalNodes>
            0 -1 40 -1.0585999116301537e-02</internalNodes>
          <leafValues>
            7.6213657855987549e-01 -6.0953277349472046e-01</leafValues></_>
        <_>
          <internalNodes>
            0 -1 17 -1.4389338502951432e-05</internalNodes>
          <leafValues>
            -8.5961520671844482e-01 4.3828964233398438e-01</leafValues></_></weakClassifiers></_>
    <!-- stage 9 -->
    <_>
      <maxWeakCount>5</maxWeakCount>
      <stageThreshold>-1.7614628374576569e-01</stageThreshold>
      <weakClassifiers>
        <_>
          <internalNodes>
            0 -1 11 -2.6446507035871036e-05</internalNodes>
          <leafValues>
            -9.4545453786849976e-01 6.5555554628372192e-01</leafValues></_>
        <_>
          <internalNodes>
            0 -1 8 -8.9140273630619049e-03</internalNodes>
          <leafValues>
            6.0365742444992065e-01 -6.6036123037338257e-01</leafValues></_>
        <_>
          <internalNodes>
            0 -1 18 -1.0930640995502472e-01</internalNodes>
          <leafValues>
            6.8299931287765503e-01 -5.7135099172592163e-01</leafValues></_>
        <_>
          <internalNodes>
            0 -1 50 1.8224585801362991e-05</internalNodes>
          <leafValues>
            3.7055307626724243e-01 -9.7935050725936890e-01</leafValues></_>
        <_>
          <internalNodes>
            0 -1 36 4.6367739560082555e-04</internalNodes>
          <leafValues>
            -7.9514139890670776e-01 3.6644876003265381e-01</leafValues></_></weakClassifiers></_>
    <!-- stage 10 -->
    <_>
      <maxWeakCount>3</maxWeakCount>
      <stageThreshold>2.0023311674594879e-01</stageThreshold>
      <weakClassifiers>
        <_>
          <internalNodes>
            0 -1 49 -4.7778539737919345e-05</internalNodes>
          <leafValues>
            -9.7916668653488159e-01 6.2093859910964966e-01</leafValues></_>
        <_>
          <internalNodes>
            0 -1 2 3.2210759818553925e-02</internalNodes>
          <leafValues>
            -6.3260614871978760e-01 5.3992843627929688e-01</leafValues></_>
        <_>
          <internalNodes>
            0 -1 7 5.6036738678812981e-03</internalNodes>
          <leafValues>
            -9.6063399314880371e-01 3.8431999087333679e-01</leafValues></_></weakClassifiers></_>
    <!-- stage 11 -->
    <_>
      <maxWeakCount>3</maxWeakCount>
      <stageThreshold>1.2608301639556885e-01</stageThreshold>
      <weakClassifiers>
        <_>
          <internalNodes>
            0 -1 6 -1.4634865692642052e-05</internalNodes>
          <leafValues>
            -7.3913043737411499e-01 6.8750000000000000e-01</leafValues></_>
        <_>
          <internalNodes>
            0 -1 35 -9.8323530983179808e-04</internalNodes>
          <leafValues>
            4.8650425672531128e-01 -7.7786809206008911e-01</leafValues></_>
        <_>
          <internalNodes>
            0 -1 13 -1.7324542999267578e-01</internalNodes>
          <leafValues>
            3.7870919704437256e-01 -9.5258969068527222e-01</leafValues></_></weakClassifiers></_>
    <!-- stage 12 -->
    <_>
      <maxWeakCount>6</maxWeakCount>
      <stageThreshold>-1.5563452243804932e-01</stageThreshold>
      <weakClassifiers>
        <_>
          <internalNodes>
            0 -1 10 1.0964565444737673e-03</internalNodes>
          <leafValues>
            -5.9210526943206787e-01 6.8273091316223145e-01</leafValues></_>
        <_>
          <internalNodes>
            0 -1 19 1.6370661556720734e-02</internalNodes>
          <leafValues>
            -6.9635444879531860e-01 5.1395517587661743e-01</leafValues></_>
        <_>
          <internalNodes>
            0 -1 41 -4.3737575411796570e-02</internalNodes>
          <leafValues>
            6.8649780750274658e-01 -5.0519025325775146e-01</leafValues></_>
        <_>
          <internalNodes>
            0 -1 49 2.4303149984916672e-05</internalNodes>
          <leafValues>
            2.7608770132064819e-01 -9.9172323942184448e-01</leafValues></_>
        <_>
          <internalNodes>
            0 -1 16 7.3295878246426582e-03</internalNodes>
          <leafValues>
            -4.9442157149314880e-01 6.5113073587417603e-01</leafValues></_>
        <_>
          <internalNodes>
            0 -1 38 1.2291942723095417e-02</internalNodes>
          <leafValues>
            -4.8089110851287842e-01 8.4415650367736816e-01</leafValues></_></weakClassifiers></_>
    <!-- stage 13 -->
    <_>
      <maxWeakCount>4</maxWeakCount>
      <stageThreshold>-3.5424241423606873e-01</stageThreshold>
      <weakClassifiers>
        <_>
          <internalNodes>
            0 -1 45 4.3692488223314285e-02</internalNodes>
          <leafValues>
            -6.6233766078948975e-01 7.0967739820480347e-01</leafValues></_>
        <_>
          <internalNodes>
            0 -1 29 5.6395018473267555e-03</internalNodes>
          <leafValues>
            -4.1184318065643311e-01 6.8369877338409424e-01</leafValues></_>
        <_>
          <internalNodes>
            0 -1 0 4.9048492655856535e-05</internalNodes>
          <leafValues>
            3.6831012368202209e-01 -9.8402190208435059e-01</leafValues></_>
        <_>
          <internalNodes>
            0 -1 46 1.5496181731577963e-05</internalNodes>
          <leafValues>
            3.5162833333015442e-01 -7.9487544298171997e-01</leafValues></_></weakClassifiers></_>
    <!-- stage 14 -->
    <_>
      <maxWeakCount>3</maxWeakCount>
      <stageThreshold>5.2766207605600357e-02</stageThreshold>
      <weakClassifiers>
        <_>
          <internalNodes>
            0 -1 30 6.9833826273679733e-03</internalNodes>
          <leafValues>
            -8.8990825414657593e-01 6.4140480756759644e-01</leafValues></_>
        <_>
          <internalNodes>
            0 -1 33 8.5195060819387436e-04</internalNodes>
          <leafValues>
            -6.7932802438735962e-01 5.7528656721115112e-01</leafValues></_>
        <_>
          <internalNodes>
            0 -1 1 -4.3500673025846481e-02</internalNodes>
          <leafValues>
            3.6738792061805725e-01 -9.3299454450607300e-01</leafValues></_></weakClassifiers></_>
    <!-- stage 15 -->
    <_>
      <maxWeakCount>5</maxWeakCount>
      <stageThreshold>-1.0087100267410278e+00</stageThreshold>
      <weakClassifiers>
        <_>
          <internalNodes>
            0 -1 20 -5.2036433480679989e-03</internalNodes>
          <leafValues>
            6.3602250814437866e-01 -7.6068377494812012e-01</leafValues></_>
        <_>
          <internalNodes>
            0 -1 28 1.9172102212905884e-01</internalNodes>
          <leafValues>
            -6.8071532249450684e-01 5.3479474782943726e-01</leafValues></_>
        <_>
          <internalNodes>
            0 -1 47 1.3267205213196576e-04</internalNodes>
          <leafValues>
            4.7768691182136536e-01 -6.8666458129882813e-01</leafValues></_>
        <_>
          <internalNodes>
            0 -1 32 1.6862232238054276e-02</internalNodes>
          <leafValues>
            -5.8352875709533691e-01 5.1250779628753662e-01</leafValues></_>
        <_>
          <internalNodes>
            0 -1 5 -1.1352133937180042e-02</internalNodes>
          <leafValues>
            3.0617612600326538e-01 -7.3586010932922363e-01</leafValues></_></weakClassifiers></_>
    <!-- stage 16 -->
    <_>
      <maxWeakCount>4</maxWeakCount>
      <stageThreshold>-1.9873645901679993e-01</stageThreshold>
      <weakClassifiers>
        <_>
          <internalNodes>
            0 -1 12 -2.3586475435877219e-05</internalNodes>
          <leafValues>
            -9.7826087474822998e-01 6.0931897163391113e-01</leafValues></_>
        <_>
          <internalNodes>
            0 -1 3 -1.5066561289131641e-02</internalNodes>
          <leafValues>
            5.7358497381210327e-01 -6.5971118211746216e-01</leafValues></_>
        <_>
          <internalNodes>
            0 -1 37 1.4101913198828697e-02</internalNodes>
          <leafValues>
            -4.0460446476936340e-01 7.3835837841033936e-01</leafValues></_>
        <_>
          <internalNodes>
            0 -1 23 -4.6922421461204067e-05</internalNodes>
          <leafValues>
            -9.8474144935607910e-01 2.5626018643379211e-01</leafValues></_></weakClassifiers></_></stages>
  <features>
    <_>
      <rects>
        <_>
          0 0 2 20 -1.</_>
        <_>
          0 10 2 10 2.</_></rects>
      <tilted>0</tilted></_>
    <_>
      <rects>
        <_>
          0 0 18 17 -1.</_>
        <_>
          9 0 9 17 2.</_></rects>
      <tilted>0</tilted></_>
    <_>
      <rects>
        <_>
          0 8 8 8 -1.</_>
        <_>
          0 8 4 4 2.</_>
        <_>
          4 12 4 4 2.</_></rects>
      <tilted>0</tilted></_>
    <_>
      <rects>
        <_>
          0 10 8 1 -1.</_>
        <_>
          4 10 4 1 2.</_></rects>
      <tilted>0</tilted></_>
    <_>
      <rects>
        <_>
          0 14 3 6 -1.</_>
        <_>
          0 16 3 2 3.</_></rects>
      <tilted>0</tilted></_>
    <_>
      <rects>
        <_>
          0 14 16 1 -1.</_>
        <_>
          8 14 8 1 2.</_></rects>
      <tilted>0</tilted></_>
    <_>
      <rects>
        <_>
          0 15 6 1 -1.</_>
        <_>
          3 15 3 1 2.</_></rects>
      <tilted>0</tilted></_>
    <_>
      <rects>
        <_>
          0 15 17 4 -1.</_>
        <_>
          0 17 17 2 2.</_></rects>
      <tilted>0</tilted></_>
    <_>
      <rects>
        <_>
          0 16 14 1 -1.</_>
        <_>
          7 16 7 1 2.</_></rects>
      <tilted>0</tilted></_>
    <_>
      <rects>
        <_>
          0 16 18 4 -1.</_>
        <_>
          0 18 18 2 2.</_></rects>
      <tilted>0</tilted></_>
    <_>
      <rects>
        <_>
          0 17 17 2 -1.</_>
        <_>
          0 18 17 1 2.</_></rects>
      <tilted>0</tilted></_>
    <_>
      <rects>
        <_>
          0 19 16 1 -1.</_>
        <_>
          8 19 8 1 2.</_></rects>
      <tilted>0</tilted></_>
    <_>
      <rects>
        <_>
          1 0 18 2 -1.</_>
        <_>
          10 0 9 2 2.</_></rects>
      <tilted>0</tilted></_>
    <_>
      <rects>
        <_>
          1 0 13 14 -1.</_>
        <_>
          1 7 13 7 2.</_></rects>
      <tilted>0</tilted></_>
    <_>
      <rects>
        <_>
          1 6 8 11 -1.</_>
        <_>
          5 6 4 11 2.</_></rects>
      <tilted>0</tilted></_>
    <_>
      <rects>
        <_>
          1 9 8 3 -1.</_>
        <_>
          5 9 4 3 2.</_></rects>
      <tilted>0</tilted></_>
    <_>
      <rects>
        <_>
          1 15 12 1 -1.</_>
        <_>
          5 15 4 1 3.</_></rects>
      <tilted>0</tilted></_>
    <_>
      <rects>
        <_>
          2 1 3 4 -1.</_>
        <_>
          2 3 3 2 2.</_></rects>
      <tilted>0</tilted></_>
    <_>
      <rects>
        <_>
          3 7 9 9 -1.</_>
        <_>
          3 10 9 3 3.</_></rects>
      <tilted>0</tilted></_>
    <_>
      <rects>
        <_>
          3 10 15 9 -1.</_>
        <_>
          3 13 15 3 3.</_></rects>
      <tilted>0</tilted></_>
    <_>
      <rects>
        <_>
          4 1 15 4 -1.</_>
        <_>
          4 3 15 2 2.</_></rects>
      <tilted>0</tilted></_>
    <_>
      <rects>
        <_>
          4 5 9 12 -1.</_>
        <_>
          4 9 9 4 3.</_></rects>
      <tilted>0</tilted></_>
    <_>
      <rects>
        <_>
          4 8 10 12 -1.</_>
        <_>
          4 14 10 6 2.</_></rects>
      <tilted>0</tilted></_>
    <_>
      <rects>
        <_>
          4 12 1 4 -1.</_>
        <_>
          4 14 1 2 2.</_></rects>
      <tilted>0</tilted></_>
    <_>
      <rects>
        <_>
          5 0 15 6 -1.</_>
        <_>
          5 3 15 3 2.</_></rects>
      <tilted>0</tilted></_>
    <_>
      <rects>
        <_>
          5 1 10 12 -1.</_>
        <_>
          5 7 10 6 2.</_></rects>
      <tilted>0</tilted></_>
    <_>
      <rects>
        <_>
          5 1 10 18 -1.</_>
        <_>
          5 7 10 6 3.</_></rects>
      <tilted>0</tilted></_>
    <_>
      <rects>
        <_>
          5 1 12 6 -1.</_>
        <_>
          5 4 12 3 2.</_></rects>
      <tilted>0</tilted></_>
    <_>
      <rects>
        <_>
          5 6 10 14 -1.</_>
        <_>
          5 13 10 7 2.</_></rects>
      <tilted>0</tilted></_>
    <_>
      <rects>
        <_>
          5 9 6 1 -1.</_>
        <_>
          8 9 3 1 2.</_></rects>
      <tilted>0</tilted></_>
    <_>
      <rects>
        <_>
          5 15 15 4 -1.</_>
        <_>
          5 17 15 2 2.</_></rects>
      <tilted>0</tilted></_>
    <_>
      <rects>
        <_>
          6 0 14 2 -1.</_>
        <_>
          13 0 7 2 2.</_></rects>
      <tilted>0</tilted></_>
    <_>
      <rects>
        <_>
          6 7 9 2 -1.</_>
        <_>
          9 7 3 2 3.</_></rects>
      <tilted>0</tilted></_>
    <_>
      <rects>
        <_>
          6 8 4 4 -1.</_>
        <_>
          8 8 2 4 2.</_></rects>
      <tilted>0</tilted></_>
    <_>
      <rects>
        <_>
          6 14 12 6 -1.</_>
        <_>
          6 17 12 3 2.</_></rects>
      <tilted>0</tilted></_>
    <_>
      <rects>
        <_>
          7 3 10 2 -1.</_>
        <_>
          7 4 10 1 2.</_></rects>
      <tilted>0</tilted></_>
    <_>
      <rects>
        <_>
          7 8 6 1 -1.</_>
        <_>
          9 8 2 1 3.</_></rects>
      <tilted>0</tilted></_>
    <_>
      <rects>
        <_>
          7 9 1 6 -1.</_>
        <_>
          7 12 1 3 2.</_></rects>
      <tilted>0</tilted></_>
    <_>
      <rects>
        <_>
          7 14 9 4 -1.</_>
        <_>
          10 14 3 4 3.</_></rects>
      <tilted>0</tilted></_>
    <_>
      <rects>
        <_>
          8 6 4 6 -1.</_>
        <_>
          8 8 4 2 3.</_></rects>
      <tilted>0</tilted></_>
    <_>
      <rects>
        <_>
          10 7 4 3 -1.</_>
        <_>
          12 7 2 3 2.</_></rects>
      <tilted>0</tilted></_>
    <_>
      <rects>
        <_>
          10 7 2 12 -1.</_>
        <_>
          10 11 2 4 3.</_></rects>
      <tilted>0</tilted></_>
    <_>
      <rects>
        <_>
          10 8 10 6 -1.</_>
        <_>
          15 8 5 6 2.</_></rects>
      <tilted>0</tilted></_>
    <_>
      <rects>
        <_>
          10 10 8 6 -1.</_>
        <_>
          14 10 4 6 2.</_></rects>
      <tilted>0</tilted></_>
    <_>
      <rects>
        <_>
          11 7 8 7 -1.</_>
        <_>
          15 7 4 7 2.</_></rects>
      <tilted>0</tilted></_>
    <_>
      <rects>
        <_>
          12 2 8 9 -1.</_>
        <_>
          16 2 4 9 2.</_></rects>
      <tilted>0</tilted></_>
    <_>
      <rects>
        <_>
          15 14 5 6 -1.</_>
        <_>
          15 17 5 3 2.</_></rects>
      <tilted>0</tilted></_>
    <_>
      <rects>
        <_>
          16 12 4 6 -1.</_>
        <_>
          18 12 2 6 2.</_></rects>
      <tilted>0</tilted></_>
    <_>
      <rects>
        <_>
          18 12 2 8 -1.</_>
        <_>
          18 16 2 4 2.</_></rects>
      <tilted>0</tilted></_>
    <_>
      <rects>
        <_>
          19 2 1 18 -1.</_>
        <_>
          19 11 1 9 2.</_></rects>
      <tilted>0</tilted></_>
    <_>
      <rects>
        <_>
          19 4 1 16 -1.</_>
        <_>
          19 12 1 8 2.</_></rects>
      <tilted>0</tilted></_></features></cascade>
</opencv_storage>
